{"learner":{"attributes":{"best_iteration":"57","best_msg":"[58]\ttrain-auc:0.883306\ttest-auc:0.861810","best_ntreelimit":"58","best_score":"0.8618099645695213","niter":"67"},"feature_names":[],"feature_types":[],"gradient_booster":{"model":{"gbtree_model_param":{"num_parallel_tree":"1","num_trees":"68","size_leaf_vector":"0"},"tree_info":[0,0,0,0,0,0,0,0,0,0,0,0,0,0,0,0,0,0,0,0,0,0,0,0,0,0,0,0,0,0,0,0,0,0,0,0,0,0,0,0,0,0,0,0,0,0,0,0,0,0,0,0,0,0,0,0,0,0,0,0,0,0,0,0,0,0,0,0],"trees":[{"base_weights":[-1.1887125E0,-1.5240757E0,-3.679031E-1,-1.5851097E0,9.5E-1,3.9175257E-1,-9.6096903E-1,-1.3412057E0,-1.8361509E0,1.7142858E-1,1.4285715E0,-2.3890784E-1,1.0170648E0,-1.0960453E0,1.5897436E0],"categories":[],"categories_nodes":[],"categories_segments":[],"categories_sizes":[],"default_left":[1,1,1,1,1,1,1,0,0,0,0,0,0,0,0],"id":0,"left_children":[1,3,5,7,9,11,13,-1,-1,-1,-1,-1,-1,-1,-1],"loss_changes":[3.115946E2,1.2302539E2,1.4916264E2,4.5648804E1,7.207144E0,5.7622322E1,6.5740814E1,0E0,0E0,0E0,0E0,0E0,0E0,0E0,0E0],"parents":[2147483647,0,0,1,1,2,2,3,3,4,4,5,5,6,6],"right_children":[2,4,6,8,10,12,14,-1,-1,-1,-1,-1,-1,-1,-1],"split_conditions":[4.25E1,2.5E0,5E-1,1.5E0,3.1194516E4,4.75E1,2.5E0,-1.3412057E-1,-1.8361509E-1,1.7142858E-2,1.4285715E-1,-2.3890784E-2,1.0170648E-1,-1.0960453E-1,1.5897436E-1],"split_indices":[3,6,8,6,5,3,6,0,0,0,0,0,0,0,0],"split_type":[0,0,0,0,0,0,0,0,0,0,0,0,0,0,0],"sum_hessian":[1.133E3,8.0375E2,3.2925E2,7.8475E2,1.9E1,1.445E2,1.8475E2,4.0125E2,3.835E2,7.75E0,1.125E1,7.225E1,7.225E1,1.76E2,8.75E0],"tree_param":{"num_deleted":"0","num_feature":"10","num_nodes":"15","size_leaf_vector":"0"}},{"base_weights":[-1.0686357E0,-1.4084351E0,-3.5863075E-1,-1.5066272E0,-1.0607764E0,1.9085856E-1,-8.212213E-1,-1.51715E0,6.803718E-1,-1.2833458E0,-6.6480196E-1,-3.6136487E-1,9.020699E-1,-1.1028706E0,-5.4881435E-2],"categories":[],"categories_nodes":[],"categories_segments":[],"categories_sizes":[],"default_left":[1,1,1,1,1,1,1,0,0,0,0,0,0,0,0],"id":1,"left_children":[1,3,5,7,9,11,13,-1,-1,-1,-1,-1,-1,-1,-1],"loss_changes":[2.677744E2,2.4063843E1,9.198779E1,1.4467163E1,1.4035431E1,6.54975E1,4.231601E1,0E0,0E0,0E0,0E0,0E0,0E0,0E0,0E0],"parents":[2147483647,0,0,1,1,2,2,3,3,4,4,5,5,6,6],"right_children":[2,4,6,8,10,12,14,-1,-1,-1,-1,-1,-1,-1,-1],"split_conditions":[4.15E1,5E-1,5E-1,2.005237E5,3.65E1,4.75E1,5E-1,-1.5171501E-1,6.803718E-2,-1.2833458E-1,-6.64802E-2,-3.613649E-2,9.0206996E-2,-1.1028706E-1,-5.488144E-3],"split_indices":[3,1,8,5,3,3,1,0,0,0,0,0,0,0,0],"split_type":[0,0,0,0,0,0,0,0,0,0,0,0,0,0,0],"sum_hessian":[1.1109966E3,7.507252E2,3.6027133E2,5.827896E2,1.6793561E2,1.6493742E2,1.953339E2,5.803038E2,2.4858677E0,1.0607304E2,6.1862576E1,9.31233E1,7.1814125E1,1.4251637E2,5.2817516E1],"tree_param":{"num_deleted":"0","num_feature":"10","num_nodes":"15","size_leaf_vector":"0"}},{"base_weights":[-9.8411185E-1,-1.2227206E0,-1.8813829E-1,-1.2879614E0,1.1970974E0,5.2597004E-1,-7.3561954E-1,-1.043927E0,-1.5307205E0,5.233838E-1,1.5549039E0,9.208767E-2,1.1143111E0,-8.2986724E-1,1.3377414E0],"categories":[],"categories_nodes":[],"categories_segments":[],"categories_sizes":[],"default_left":[1,1,1,1,1,1,1,0,0,0,0,0,0,0,0],"id":2,"left_children":[1,3,5,7,9,11,13,-1,-1,-1,-1,-1,-1,-1,-1],"loss_changes":[2.1076917E2,1.3644995E2,1.0102183E2,4.772632E1,4.7192E0,2.8560856E1,2.966291E1,0E0,0E0,0E0,0E0,0E0,0E0,0E0,0E0],"parents":[2147483647,0,0,1,1,2,2,3,3,4,4,5,5,6,6],"right_children":[2,4,6,8,10,12,14,-1,-1,-1,-1,-1,-1,-1,-1],"split_conditions":[4.45E1,2.5E0,5E-1,1.5E0,3.1194516E4,5.05E1,2.5E0,-1.043927E-1,-1.5307204E-1,5.233838E-2,1.5549038E-1,9.208768E-3,1.11431114E-1,-8.298673E-2,1.3377415E-1],"split_indices":[3,6,8,6,5,3,6,0,0,0,0,0,0,0,0],"split_type":[0,0,0,0,0,0,0,0,0,0,0,0,0,0,0],"sum_hessian":[1.1099523E3,8.5354816E2,2.5640402E2,8.315953E2,2.1952923E1,1.11286514E2,1.4511751E2,4.173514E2,4.1424384E2,8.469139E0,1.3483784E1,6.471664E1,4.656988E1,1.3938147E2,5.736046E0],"tree_param":{"num_deleted":"0","num_feature":"10","num_nodes":"15","size_leaf_vector":"0"}},{"base_weights":[-9.055847E-1,-9.835654E-1,1.3152149E0,-6.3500005E-1,-1.3725901E0,7.4804634E-1,1.5787951E0,-8.79433E-1,3.2244623E-2,-1.4986802E0,-1.1934606E0,2.943747E-1,1.4254593E0,1.6421689E0,7.23211E-1],"categories":[],"categories_nodes":[],"categories_segments":[],"categories_sizes":[],"default_left":[1,1,1,1,1,1,1,0,0,0,0,0,0,1,1],"id":3,"left_children":[1,3,5,7,9,11,-1,-1,-1,-1,-1,-1,-1,-1,-1],"loss_changes":[1.8876923E2,1.4102063E2,4.3728333E0,9.034473E1,9.360962E0,3.7869205E0,1.3880157E-1,0E0,0E0,0E0,0E0,0E0,0E0,0E0,0E0],"parents":[2147483647,0,0,1,1,2,2,3,3,4,4,5,5,6,6],"right_children":[2,4,6,8,10,12,-1,-1,-1,-1,-1,-1,-1,-1,-1],"split_conditions":[2.5E0,1.5E0,2.188633E4,5E-1,4.5580816E4,1.10940336E5,1.5787952E-1,-8.79433E-2,3.2244623E-3,-1.4986803E-1,-1.1934606E-1,2.9437471E-2,1.4254592E-1,1.6421689E-1,7.23211E-2],"split_indices":[6,6,5,1,5,9,9,0,0,0,0,0,0,2147483647,2147483647],"split_type":[0,0,0,0,0,0,0,0,0,0,0,0,0,0,0],"sum_hessian":[1.0815504E3,1.0453997E3,3.615085E1,5.5276E2,4.9263962E2,1.268768E1,2.3463167E1,4.0432492E2,1.4843507E2,2.848005E2,2.0783911E2,8.457888E0,4.2297926E0,2.098913E1,2.4740367E0],"tree_param":{"num_deleted":"2","num_feature":"10","num_nodes":"15","size_leaf_vector":"0"}},{"base_weights":[-8.398312E-1,-1.1449277E0,-2.266246E-1,-1.195696E0,7.775175E-1,1.630848E-1,-7.2027147E-1,-1.0203803E0,-1.3730465E0,1.7630243E-1,1.1868252E0,6.520897E-1,-3.1834862E-1,-1.0153267E0,1.4832028E0],"categories":[],"categories_nodes":[],"categories_segments":[],"categories_sizes":[],"default_left":[1,1,1,1,1,1,1,0,0,0,0,0,0,0,0],"id":4,"left_children":[1,3,5,7,9,11,13,-1,-1,-1,-1,-1,-1,-1,-1],"loss_changes":[1.9671185E2,6.952142E1,6.764992E1,1.9900574E1,4.389511E0,4.658288E1,1.0231253E2,0E0,0E0,0E0,0E0,0E0,0E0,0E0,0E0],"parents":[2147483647,0,0,1,1,2,2,3,3,4,4,5,5,6,6],"right_children":[2,4,6,8,10,12,14,-1,-1,-1,-1,-1,-1,-1,-1],"split_conditions":[4.15E1,2.5E0,1.5E0,1.5E0,3.1194516E4,5E-1,2.5E0,-1.02038026E-1,-1.3730465E-1,1.7630244E-2,1.1868252E-1,6.520897E-2,-3.1834863E-2,-1.01532675E-1,1.4832029E-1],"split_indices":[3,6,6,6,5,8,6,0,0,0,0,0,0,0,0],"split_type":[0,0,0,0,0,0,0,0,0,0,0,0,0,0,0],"sum_hessian":[1.051831E3,7.017922E2,3.500389E2,6.841043E2,1.768789E1,1.9598682E2,1.5405211E2,3.474218E2,3.3668246E2,7.7439117E0,9.943977E0,9.705299E1,9.893382E1,1.3633539E2,1.7716713E1],"tree_param":{"num_deleted":"0","num_feature":"10","num_nodes":"15","size_leaf_vector":"0"}},{"base_weights":[-7.787722E-1,-8.433624E-1,1.144227E0,-5.345647E-1,-1.2063949E0,1.4638807E0,7.696305E-1,-7.586411E-1,7.297995E-2,-1.3728098E0,-9.874096E-1,2.0419028E-1,1.0923544E0],"categories":[],"categories_nodes":[],"categories_segments":[],"categories_sizes":[],"default_left":[1,1,1,1,1,0,1,0,0,0,0,0,0],"id":5,"left_children":[1,3,5,7,9,-1,11,-1,-1,-1,-1,-1,-1],"loss_changes":[1.2900757E2,1.11229614E2,2.935524E0,7.37126E1,1.5331482E1,0E0,3.012063E0,0E0,0E0,0E0,0E0,0E0,0E0],"parents":[2147483647,0,0,1,1,2,2,3,3,4,4,6,6],"right_children":[2,4,6,8,10,-1,12,-1,-1,-1,-1,-1,-1],"split_conditions":[2.5E0,1.5E0,5E-1,5E-1,2.3913375E4,1.4638807E-1,3.6046477E4,-7.5864114E-2,7.297995E-3,-1.3728099E-1,-9.874096E-2,2.041903E-2,1.0923544E-1],"split_indices":[6,6,8,1,5,0,5,0,0,0,0,0,0],"split_type":[0,0,0,0,0,0,0,0,0,0,0,0,0],"sum_hessian":[1.0298806E3,9.9695605E2,3.29246E1,5.400547E2,4.5690134E2,1.6196117E1,1.672848E1,3.943578E2,1.4569693E2,2.566187E2,2.0028262E2,6.6717343E0,1.0056746E1],"tree_param":{"num_deleted":"0","num_feature":"10","num_nodes":"13","size_leaf_vector":"0"}},{"base_weights":[-7.1495074E-1,-8.602879E-1,-2.8496835E-1,-8.937076E-1,1.2662868E-1,-1.8380405E-1,-1.1671546E0,-6.95085E-1,-1.0496489E0,-1.24331996E-1,1.4737351E0,-8.0852884E-1,2.2262732E-2,-7.107429E-1,-1.2572577E0],"categories":[],"categories_nodes":[],"categories_segments":[],"categories_sizes":[],"default_left":[1,1,1,1,1,1,1,0,0,0,0,0,0,1,1],"id":6,"left_children":[1,3,5,7,9,11,-1,-1,-1,-1,-1,-1,-1,-1,-1],"loss_changes":[6.2479187E1,2.4838745E1,2.254783E1,2.1733215E1,8.780336E0,2.9627113E1,1.7778397E-1,0E0,0E0,0E0,0E0,0E0,0E0,0E0,0E0],"parents":[2147483647,0,0,1,1,2,2,3,3,4,4,5,5,6,6],"right_children":[2,4,6,8,10,12,-1,-1,-1,-1,-1,-1,-1,-1,-1],"split_conditions":[5E-1,1.68194E5,1.5172056E5,5E-1,1.9945931E5,1.0000014E5,-1.1671545E-1,-6.95085E-2,-1.0496489E-1,-1.24332E-2,1.4737351E-1,-8.085289E-2,2.2262733E-3,-7.107429E-2,-1.2572578E-1],"split_indices":[1,5,5,2,5,5,5,0,0,0,0,0,0,2147483647,2147483647],"split_type":[0,0,0,0,0,0,0,0,0,0,0,0,0,0,0],"sum_hessian":[1.00271075E3,7.4865814E2,2.540526E2,7.242283E2,2.4429897E1,2.2900043E2,2.5052168E1,3.209242E2,4.0330405E2,2.135858E1,3.071316E0,5.607534E1,1.7292508E2,5.5956874E0,1.9456482E1],"tree_param":{"num_deleted":"2","num_feature":"10","num_nodes":"15","size_leaf_vector":"0"}},{"base_weights":[-6.518376E-1,-1.006525E0,-1.6014309E-1,-1.0484483E0,8.141284E-1,1.8435633E-1,-6.077135E-1,-9.037562E-1,-1.205504E0,1.931303E-1,1.1119466E0,5.6002164E-1,-2.1505164E-1,-8.359459E-1,1.2036284E0],"categories":[],"categories_nodes":[],"categories_segments":[],"categories_sizes":[],"default_left":[1,1,1,1,1,1,1,0,0,0,0,0,0,0,0],"id":7,"left_children":[1,3,5,7,9,11,13,-1,-1,-1,-1,-1,-1,-1,-1],"loss_changes":[1.71443E2,4.4470337E1,6.387472E1,1.1614075E1,2.268134E0,3.5297215E1,7.5458984E1,0E0,0E0,0E0,0E0,0E0,0E0,0E0,0E0],"parents":[2147483647,0,0,1,1,2,2,3,3,4,4,5,5,6,6],"right_children":[2,4,6,8,10,12,14,-1,-1,-1,-1,-1,-1,-1,-1],"split_conditions":[3.95E1,2.5E0,1.5E0,1.5E0,3.15E1,5E-1,2.5E0,-9.0375625E-2,-1.20550394E-1,1.931303E-2,1.1119466E-1,5.6002166E-2,-2.1505164E-2,-8.359459E-2,1.2036284E-1],"split_indices":[3,6,6,6,3,8,6,0,0,0,0,0,0,0,0],"split_type":[0,0,0,0,0,0,0,0,0,0,0,0,0,0,0],"sum_hessian":[9.829806E2,5.7044135E2,4.1253925E2,5.5801636E2,1.2425023E1,2.3344353E2,1.7909572E2,2.9395547E2,2.6406085E2,4.561681E0,7.8633423E0,1.2009004E2,1.1335348E2,1.5953279E2,1.956293E1],"tree_param":{"num_deleted":"0","num_feature":"10","num_nodes":"15","size_leaf_vector":"0"}},{"base_weights":[-6.1221373E-1,-8.5287976E-1,9.72633E-2,-9.9147004E-1,-5.060941E-1,6.050106E-1,-3.151684E-1,-1.0548456E0,-7.760862E-1,-5.491241E-1,4.5861238E-1,2.5359482E-1,1.0891603E0,-1.3197906E-3,-9.103309E-1],"categories":[],"categories_nodes":[],"categories_segments":[],"categories_sizes":[],"default_left":[1,1,1,1,1,1,1,0,0,0,0,0,0,0,0],"id":8,"left_children":[1,3,5,7,9,11,13,-1,-1,-1,-1,-1,-1,-1,-1],"loss_changes":[1.6330377E2,3.3808777E1,5.1083317E1,6.1293945E0,8.798279E0,1.8314651E1,2.517038E1,0E0,0E0,0E0,0E0,0E0,0E0,0E0,0E0],"parents":[2147483647,0,0,1,1,2,2,3,3,4,4,5,5,6,6],"right_children":[2,4,6,8,10,12,14,-1,-1,-1,-1,-1,-1,-1,-1],"split_conditions":[4.45E1,3.85E1,5E-1,5E-1,1.68872E5,5.05E1,5.85E1,-1.0548456E-1,-7.760862E-2,-5.4912414E-2,4.586124E-2,2.5359482E-2,1.0891604E-1,-1.3197906E-4,-9.103309E-2],"split_indices":[3,3,8,1,5,3,3,0,0,0,0,0,0,0,0],"split_type":[0,0,0,0,0,0,0,0,0,0,0,0,0,0,0],"sum_hessian":[9.549218E2,7.128944E2,2.420274E2,5.0801218E2,2.0488222E2,1.0826936E2,1.3375804E2,3.8950497E2,1.18507195E2,1.965462E2,8.336013E0,6.361718E1,4.4652184E1,8.823242E1,4.552562E1],"tree_param":{"num_deleted":"0","num_feature":"10","num_nodes":"15","size_leaf_vector":"0"}},{"base_weights":[-5.573663E-1,-8.467799E-1,-3.832912E-2,-8.836893E-1,5.09713E-1,2.8185642E-1,-4.8280448E-1,-7.0124435E-1,-1.094392E0,6.330009E-2,8.57508E-1,3.735181E-1,-1.0253179E0,-7.462591E-1,1.2862992E0],"categories":[],"categories_nodes":[],"categories_segments":[],"categories_sizes":[],"default_left":[1,1,1,1,1,1,1,0,0,0,0,0,0,0,0],"id":9,"left_children":[1,3,5,7,9,11,13,-1,-1,-1,-1,-1,-1,-1,-1],"loss_changes":[1.3858322E2,3.010965E1,4.729727E1,2.1415741E1,2.4804568E0,2.3538609E1,6.5805336E1,0E0,0E0,0E0,0E0,0E0,0E0,0E0,0E0],"parents":[2147483647,0,0,1,1,2,2,3,3,4,4,5,5,6,6],"right_children":[2,4,6,8,10,12,14,-1,-1,-1,-1,-1,-1,-1,-1],"split_conditions":[4.15E1,2.5E0,1.5E0,1.5E0,3.1194516E4,6.75E1,2.5E0,-7.012444E-2,-1.09439194E-1,6.330009E-3,8.57508E-2,3.7351813E-2,-1.0253179E-1,-7.462591E-2,1.2862992E-1],"split_indices":[3,6,6,6,5,3,6,0,0,0,0,0,0,0,0],"split_type":[0,0,0,0,0,0,0,0,0,0,0,0,0,0,0],"sum_hessian":[9.2177356E2,5.913867E2,3.3038687E2,5.76061E2,1.5325742E1,1.9225703E2,1.3812982E2,3.1105246E2,2.650085E2,7.228977E0,8.096765E0,1.8032645E2,1.1930597E1,1.2072905E2,1.7400778E1],"tree_param":{"num_deleted":"0","num_feature":"10","num_nodes":"15","size_leaf_vector":"0"}},{"base_weights":[-5.2444136E-1,-5.7751703E-1,8.964613E-1,-2.916763E-1,-9.508145E-1,3.0260232E-1,1.2503002E0,-5.024098E-1,2.4446917E-1,-1.1293116E0,-7.317347E-1,-1.5969148E-1,1.3962617E0,1.3323015E0,3.9598033E-1],"categories":[],"categories_nodes":[],"categories_segments":[],"categories_sizes":[],"default_left":[1,1,1,1,1,1,1,0,0,0,0,0,0,0,0],"id":10,"left_children":[1,3,5,7,9,11,13,-1,-1,-1,-1,-1,-1,-1,-1],"loss_changes":[6.810486E1,9.197168E1,6.4850407E0,5.5605213E1,1.3817352E1,7.0557423E0,8.8391876E-1,0E0,0E0,0E0,0E0,0E0,0E0,0E0,0E0],"parents":[2147483647,0,0,1,1,2,2,3,3,4,4,5,5,6,6],"right_children":[2,4,6,8,10,12,14,-1,-1,-1,-1,-1,-1,-1,-1],"split_conditions":[2.5E0,1.5E0,2.188633E4,5E-1,4.5580816E4,1.356753E5,1.745915E5,-5.0240982E-2,2.4446918E-2,-1.12931155E-1,-7.317347E-2,-1.5969148E-2,1.3962618E-1,1.3323015E-1,3.9598033E-2],"split_indices":[6,6,5,1,5,9,9,0,0,0,0,0,0,0,0],"split_type":[0,0,0,0,0,0,0,0,0,0,0,0,0,0,0],"sum_hessian":[8.951979E2,8.6353534E2,3.1662508E1,4.9006494E2,3.734704E2,1.2514399E1,1.914811E1,3.5183725E2,1.3822769E2,2.0350677E2,1.6996362E2,9.396463E0,3.117935E0,1.6960665E1,2.187444E0],"tree_param":{"num_deleted":"0","num_feature":"10","num_nodes":"15","size_leaf_vector":"0"}},{"base_weights":[-4.8591736E-1,-8.351905E-1,-1.0685852E-1,-8.7299764E-1,5.3115094E-1,1.5312915E-1,-4.704395E-1,-7.1592534E-1,-1.0588195E0,-4.3788712E-2,9.985795E-1,-4.7573775E-2,5.975189E-1,-6.9962984E-1,1.2197238E0],"categories":[],"categories_nodes":[],"categories_segments":[],"categories_sizes":[],"default_left":[1,1,1,1,1,1,1,0,0,0,0,0,0,0,0],"id":11,"left_children":[1,3,5,7,9,11,13,-1,-1,-1,-1,-1,-1,-1,-1],"loss_changes":[1.1563954E2,2.3956848E1,3.9804527E1,1.2169617E1,3.501644E0,2.1954525E1,6.883528E1,0E0,0E0,0E0,0E0,0E0,0E0,0E0,0E0],"parents":[2147483647,0,0,1,1,2,2,3,3,4,4,5,5,6,6],"right_children":[2,4,6,8,10,12,14,-1,-1,-1,-1,-1,-1,-1,-1],"split_conditions":[3.85E1,2.5E0,1.5E0,1.5E0,4.678493E4,5E-1,2.5E0,-7.159253E-2,-1.0588195E-1,-4.3788715E-3,9.985795E-2,-4.757378E-3,5.9751894E-2,-6.9962986E-2,1.2197238E-1],"split_indices":[3,6,6,6,5,1,6,0,0,0,0,0,0,0,0],"split_type":[0,0,0,0,0,0,0,0,0,0,0,0,0,0,0],"sum_hessian":[8.7311725E2,4.5378577E2,4.1933145E2,4.4191876E2,1.1866995E1,2.4483495E2,1.7449652E2,2.4211528E2,1.9980348E2,5.7279296E0,6.139065E0,1.6927638E2,7.555855E1,1.5417593E2,2.0320581E1],"tree_param":{"num_deleted":"0","num_feature":"10","num_nodes":"15","size_leaf_vector":"0"}},{"base_weights":[-4.7422484E-1,-7.967557E-1,-8.849505E-2,-8.2888687E-1,5.198344E-1,1.4017548E-1,-4.1544047E-1,-6.7480904E-1,-1.0227143E0,2.3854338E-1,1.0924765E0,3.9618784E-1,-1.4307788E-1,-6.207059E-1,1.0948565E0],"categories":[],"categories_nodes":[],"categories_segments":[],"categories_sizes":[],"default_left":[1,1,1,1,1,1,1,0,0,0,0,0,0,0,0],"id":12,"left_children":[1,3,5,7,9,11,13,-1,-1,-1,-1,-1,-1,-1,-1],"loss_changes":[1.05377E2,1.9953247E1,2.8998966E1,1.2774963E1,1.6093075E0,1.6629025E1,5.0147655E1,0E0,0E0,0E0,0E0,0E0,0E0,0E0,0E0],"parents":[2147483647,0,0,1,1,2,2,3,3,4,4,5,5,6,6],"right_children":[2,4,6,8,10,12,14,-1,-1,-1,-1,-1,-1,-1,-1],"split_conditions":[3.95E1,2.5E0,1.5E0,1.5E0,3.75E1,5E-1,2.5E0,-6.748091E-2,-1.0227143E-1,2.3854338E-2,1.0924765E-1,3.9618786E-2,-1.4307789E-2,-6.207059E-2,1.0948565E-1],"split_indices":[3,6,6,6,3,8,6,0,0,0,0,0,0,0,0],"split_type":[0,0,0,0,0,0,0,0,0,0,0,0,0,0,0],"sum_hessian":[8.465825E2,4.604817E2,3.861008E2,4.4987305E2,1.0608649E1,2.2753246E2,1.5856836E2,2.531332E2,1.9673985E2,8.064033E0,2.5446167E0,1.193037E2,1.0822875E2,1.4011433E2,1.8454014E1],"tree_param":{"num_deleted":"0","num_feature":"10","num_nodes":"15","size_leaf_vector":"0"}},{"base_weights":[-4.2795178E-1,-6.7929965E-1,1.2585741E-3,-7.169313E-1,4.1739884E-1,3.4586665E-1,-3.128383E-1,-8.8864356E-1,-5.1729554E-1,1.927988E-1,8.071843E-1,-4.457447E-2,7.0189196E-1,-3.7455833E-1,1.0377855E0],"categories":[],"categories_nodes":[],"categories_segments":[],"categories_sizes":[],"default_left":[1,1,1,1,1,1,1,0,0,0,0,0,0,0,0],"id":13,"left_children":[1,3,5,7,9,11,13,-1,-1,-1,-1,-1,-1,-1,-1],"loss_changes":[8.890239E1,2.1748398E1,3.315921E1,1.6777863E1,1.4091599E0,2.0337034E1,1.37490015E1,0E0,0E0,0E0,0E0,0E0,0E0,0E0,0E0],"parents":[2147483647,0,0,1,1,2,2,3,3,4,4,5,5,6,6],"right_children":[2,4,6,8,10,12,14,-1,-1,-1,-1,-1,-1,-1,-1],"split_conditions":[4.15E1,2.5E0,5E-1,3.45E1,1.3322881E5,4.65E1,2.5E0,-8.886436E-2,-5.1729556E-2,1.927988E-2,8.071843E-2,-4.457447E-3,7.01892E-2,-3.7455834E-2,1.03778556E-1],"split_indices":[3,6,8,3,9,3,6,0,0,0,0,0,0,0,0],"split_type":[0,0,0,0,0,0,0,0,0,0,0,0,0,0,0],"sum_hessian":[8.2306934E2,5.187209E2,3.0434842E2,5.0184705E2,1.6873884E1,1.4507727E2,1.5927115E2,2.6793628E2,2.3391075E2,1.1653561E1,5.220323E0,6.961147E1,7.54658E1,1.5300203E2,6.269122E0],"tree_param":{"num_deleted":"0","num_feature":"10","num_nodes":"15","size_leaf_vector":"0"}},{"base_weights":[-4.0919054E-1,-4.5367458E-1,7.664166E-1,-2.3832409E-1,-7.781325E-1,3.7599832E-1,1.0238665E0,-3.953564E-1,1.4661019E-1,-1.0115187E0,-5.0030816E-1,2.8964754E-2,1.2052877E0,1.1042501E0,3.2216546E-1],"categories":[],"categories_nodes":[],"categories_segments":[],"categories_sizes":[],"default_left":[1,1,1,1,1,1,1,0,0,0,0,0,0,0,0],"id":14,"left_children":[1,3,5,7,9,11,13,-1,-1,-1,-1,-1,-1,-1,-1],"loss_changes":[4.2146774E1,5.366989E1,2.5815086E0,2.8149014E1,1.9403046E1,3.7951257E0,6.147003E-1,0E0,0E0,0E0,0E0,0E0,0E0,0E0,0E0],"parents":[2147483647,0,0,1,1,2,2,3,3,4,4,5,5,6,6],"right_children":[2,4,6,8,10,12,14,-1,-1,-1,-1,-1,-1,-1,-1],"split_conditions":[2.5E0,1.5E0,2.5455605E4,5E-1,4.5580816E4,1.3269548E5,1.7446219E5,-3.9535638E-2,1.4661019E-2,-1.01151876E-1,-5.0030816E-2,2.8964754E-3,1.2052877E-1,1.1042501E-1,3.2216545E-2],"split_indices":[6,6,5,1,5,9,9,0,0,0,0,0,0,0,0],"split_type":[0,0,0,0,0,0,0,0,0,0,0,0,0,0,0],"sum_hessian":[7.982828E2,7.697694E2,2.8513361E1,4.6372113E2,3.0604828E2,1.2308384E1,1.6204977E1,3.2934085E2,1.3438026E2,1.6489088E2,1.411574E2,9.406827E0,2.9015572E0,1.4024697E1,2.180279E0],"tree_param":{"num_deleted":"0","num_feature":"10","num_nodes":"15","size_leaf_vector":"0"}},{"base_weights":[-3.6069462E-1,-6.29627E-1,6.929963E-2,-7.7932894E-1,-4.0811896E-1,3.7640387E-1,-2.3336348E-1,-6.133852E-1,-9.3073255E-1,-5.339478E-1,-7.352788E-2,1.5552929E-1,1.1401836E0,-8.767752E-2,-8.2143384E-1],"categories":[],"categories_nodes":[],"categories_segments":[],"categories_sizes":[],"default_left":[1,1,1,1,1,1,1,0,0,0,0,0,0,0,0],"id":15,"left_children":[1,3,5,7,9,11,13,-1,-1,-1,-1,-1,-1,-1,-1],"loss_changes":[9.034182E1,1.5615433E1,2.8098942E1,6.605255E0,8.207367E0,2.5121696E1,1.2984163E1,0E0,0E0,0E0,0E0,0E0,0E0,0E0,0E0],"parents":[2147483647,0,0,1,1,2,2,3,3,4,4,5,5,6,6],"right_children":[2,4,6,8,10,12,14,-1,-1,-1,-1,-1,-1,-1,-1],"split_conditions":[4.15E1,3.55E1,5E-1,5E-1,5E-1,5.25E1,6.15E1,-6.133852E-2,-9.307326E-2,-5.3394783E-2,-7.352788E-3,1.555293E-2,1.1401836E-1,-8.767753E-3,-8.214339E-2],"split_indices":[3,3,8,8,1,3,3,0,0,0,0,0,0,0,0],"split_type":[0,0,0,0,0,0,0,0,0,0,0,0,0,0,0],"sum_hessian":[7.7986017E2,4.795006E2,3.0035953E2,2.8462442E2,1.9487619E2,1.4896503E2,1.513945E2,1.3820177E2,1.4642267E2,1.4118518E2,5.3691E1,1.1648329E2,3.248173E1,1.2225635E2,2.9138153E1],"tree_param":{"num_deleted":"0","num_feature":"10","num_nodes":"15","size_leaf_vector":"0"}},{"base_weights":[-3.3931893E-1,-5.459042E-1,1.5980256E-1,-5.853287E-1,6.2870944E-1,5.681548E-1,-1.9215661E-1,-4.0609843E-1,-8.365944E-1,2.2065397E-1,9.0621436E-1,2.888423E-1,1.0601805E0,7.176703E-2,-7.387812E-1],"categories":[],"categories_nodes":[],"categories_segments":[],"categories_sizes":[],"default_left":[1,1,1,1,1,1,1,0,0,0,0,0,0,0,0],"id":16,"left_children":[1,3,5,7,9,11,13,-1,-1,-1,-1,-1,-1,-1,-1],"loss_changes":[7.931712E1,2.5545181E1,3.2548866E1,2.3372955E1,1.8538976E0,1.408765E1,1.7649643E1,0E0,0E0,0E0,0E0,0E0,0E0,0E0,0E0],"parents":[2147483647,0,0,1,1,2,2,3,3,4,4,5,5,6,6],"right_children":[2,4,6,8,10,12,14,-1,-1,-1,-1,-1,-1,-1,-1],"split_conditions":[4.45E1,2.5E0,5E-1,1.5E0,9.438415E4,5.15E1,5.85E1,-4.0609844E-2,-8.365944E-2,2.2065397E-2,9.0621434E-2,2.888423E-2,1.0601806E-1,7.1767033E-3,-7.3878124E-2],"split_indices":[3,6,8,6,9,3,3,0,0,0,0,0,0,0,0],"split_type":[0,0,0,0,0,0,0,0,0,0,0,0,0,0,0],"sum_hessian":[7.67393E2,5.4268365E2,2.2470934E2,5.25546E2,1.7137627E1,1.03736855E2,1.2097247E2,3.0827014E2,2.1727588E2,7.6637077E0,9.473919E0,6.718463E1,3.6552223E1,8.216832E1,3.8804153E1],"tree_param":{"num_deleted":"0","num_feature":"10","num_nodes":"15","size_leaf_vector":"0"}},{"base_weights":[-2.8508475E-1,-5.893299E-1,4.561498E-2,-6.194228E-1,3.894385E-1,2.517918E-1,-2.7946916E-1,-4.3670234E-1,-8.758693E-1,7.830632E-1,-2.0490803E-2,7.3976596E-3,4.8204565E-1,-4.3956867E-1,8.716564E-1],"categories":[],"categories_nodes":[],"categories_segments":[],"categories_sizes":[],"default_left":[1,1,1,1,1,1,1,0,0,0,0,0,0,0,0],"id":17,"left_children":[1,3,5,7,9,11,13,-1,-1,-1,-1,-1,-1,-1,-1],"loss_changes":[7.427773E1,1.1564392E1,2.383361E1,1.7112137E1,1.9654388E0,1.2234351E1,2.5828484E1,0E0,0E0,0E0,0E0,0E0,0E0,0E0,0E0],"parents":[2147483647,0,0,1,1,2,2,3,3,4,4,5,5,6,6],"right_children":[2,4,6,8,10,12,14,-1,-1,-1,-1,-1,-1,-1,-1],"split_conditions":[3.95E1,2.5E0,1.5E0,1.5E0,5E-1,4.65E1,2.5E0,-4.3670233E-2,-8.758693E-2,7.830632E-2,-2.0490803E-3,7.39766E-4,4.8204567E-2,-4.395687E-2,8.7165646E-2],"split_indices":[3,6,6,6,8,3,6,0,0,0,0,0,0,0,0],"split_type":[0,0,0,0,0,0,0,0,0,0,0,0,0,0,0],"sum_hessian":[7.3697906E2,3.8343512E2,3.5354398E2,3.7235397E2,1.1081147E1,2.1647522E2,1.3706876E2,2.1901013E2,1.5334383E2,5.188641E0,5.8925056E0,1.0551379E2,1.1096143E2,1.2087544E2,1.6193316E1],"tree_param":{"num_deleted":"0","num_feature":"10","num_nodes":"15","size_leaf_vector":"0"}},{"base_weights":[-3.008216E-1,-5.3903884E-1,6.157244E-2,-3.9821178E-1,-7.3638135E-1,2.5614083E-1,-2.5776076E-1,-5.558299E-1,2.0198751E-2,-8.257807E-1,2.971969E-1,3.0176455E-1,-1.2834915E0,-7.4550956E-1,2.038702E-1],"categories":[],"categories_nodes":[],"categories_segments":[],"categories_sizes":[],"default_left":[1,1,1,1,1,1,1,0,0,0,0,0,0,0,0],"id":18,"left_children":[1,3,5,7,9,11,13,-1,-1,-1,-1,-1,-1,-1,-1],"loss_changes":[6.178032E1,1.170343E1,1.7747982E1,1.6767845E1,1.67471E1,1.2844384E1,2.4524586E1,0E0,0E0,0E0,0E0,0E0,0E0,0E0,0E0],"parents":[2147483647,0,0,1,1,2,2,3,3,4,4,5,5,6,6],"right_children":[2,4,6,8,10,12,14,-1,-1,-1,-1,-1,-1,-1,-1],"split_conditions":[4.15E1,1.5E0,1.5E0,5E-1,2.5E0,7.15E1,4.1407977E4,-5.558299E-2,2.0198752E-3,-8.257807E-2,2.971969E-2,3.0176455E-2,-1.2834916E-1,-7.455096E-2,2.0387022E-2],"split_indices":[3,6,6,1,6,3,5,0,0,0,0,0,0,0,0],"split_type":[0,0,0,0,0,0,0,0,0,0,0,0,0,0,0],"sum_hessian":[7.142579E2,4.3067154E2,2.8358633E2,2.5308418E2,1.7758734E2,1.7634062E2,1.0724572E2,1.8359447E2,6.9489716E1,1.636348E2,1.3952539E1,1.720464E2,4.2942257E0,5.184866E1,5.5397064E1],"tree_param":{"num_deleted":"0","num_feature":"10","num_nodes":"15","size_leaf_vector":"0"}},{"base_weights":[-2.8875142E-1,-4.5752704E-1,1.0335918E-1,-2.8116256E-1,-6.408029E-1,4.361978E-1,-1.7617841E-1,-5.1347566E-1,-1.1352949E-1,-6.5999657E-1,1.7011569E0,1.4657465E-1,8.248622E-1,-3.580915E-1,2.37799E-1],"categories":[],"categories_nodes":[],"categories_segments":[],"categories_sizes":[],"default_left":[1,1,1,1,1,1,1,0,0,0,0,0,0,0,0],"id":19,"left_children":[1,3,5,7,9,11,13,-1,-1,-1,-1,-1,-1,-1,-1],"loss_changes":[4.633704E1,1.5631607E1,1.9735573E1,9.7192E0,1.187072E1,1.0768522E1,8.78723E0,0E0,0E0,0E0,0E0,0E0,0E0,0E0,0E0],"parents":[2147483647,0,0,1,1,2,2,3,3,4,4,5,5,6,6],"right_children":[2,4,6,8,10,12,14,-1,-1,-1,-1,-1,-1,-1,-1],"split_conditions":[4.45E1,5E-1,5E-1,3.45E1,2.005237E5,5.05E1,5E-1,-5.1347565E-2,-1.1352949E-2,-6.599966E-2,1.701157E-1,1.4657465E-2,8.248622E-2,-3.580915E-2,2.37799E-2],"split_indices":[3,8,8,3,5,3,1,0,0,0,0,0,0,0,0],"split_type":[0,0,0,0,0,0,0,0,0,0,0,0,0,0,0],"sum_hessian":[6.98466E2,4.8817477E2,2.1029121E2,2.5006953E2,2.3810526E2,9.573795E1,1.1455327E2,1.0394919E2,1.4612033E2,2.3688206E2,1.2231948E0,5.5647747E1,4.0090202E1,7.96763E1,3.487697E1],"tree_param":{"num_deleted":"0","num_feature":"10","num_nodes":"15","size_leaf_vector":"0"}},{"base_weights":[-2.3622799E-1,-5.09719E-1,4.3985525E-5,-6.049897E-1,-2.4041052E-1,2.3968464E-1,-2.2163847E-1,-6.293928E-1,5.2241075E-1,-7.704343E-2,-1.1080452E0,2.7920374E-1,-1.018428E0,-3.7355062E-1,1.2807359E-1],"categories":[],"categories_nodes":[],"categories_segments":[],"categories_sizes":[],"default_left":[1,1,1,1,1,1,1,0,0,0,0,0,0,0,0],"id":20,"left_children":[1,3,5,7,9,11,13,-1,-1,-1,-1,-1,-1,-1,-1],"loss_changes":[4.334252E1,7.8310547E0,1.9223492E1,6.6287155E0,1.1665057E1,8.929907E0,1.0034013E1,0E0,0E0,0E0,0E0,0E0,0E0,0E0,0E0],"parents":[2147483647,0,0,1,1,2,2,3,3,4,4,5,5,6,6],"right_children":[2,4,6,8,10,12,14,-1,-1,-1,-1,-1,-1,-1,-1],"split_conditions":[3.85E1,5E-1,5E-1,1.8117623E5,1.4898169E5,7.15E1,5E-1,-6.293928E-2,5.2241076E-2,-7.704343E-3,-1.1080452E-1,2.7920375E-2,-1.018428E-1,-3.735506E-2,1.2807359E-2],"split_indices":[3,1,2,5,5,3,1,0,0,0,0,0,0,0,0],"split_type":[0,0,0,0,0,0,0,0,0,0,0,0,0,0,0],"sum_hessian":[6.697471E2,3.098872E2,3.598599E2,2.2798767E2,8.189953E1,1.7288669E2,1.869732E2,2.235897E2,4.3979616E0,6.983843E1,1.2061093E1,1.6837584E2,4.510848E0,1.3030261E2,5.667059E1],"tree_param":{"num_deleted":"0","num_feature":"10","num_nodes":"15","size_leaf_vector":"0"}},{"base_weights":[-2.1156396E-1,-3.7978494E-1,1.03312045E-1,-4.1499138E-1,5.256525E-1,4.2818284E-1,-1.9896834E-1,-2.551747E-1,-6.7079777E-1,1.0973621E-1,7.222632E-1,7.573582E-1,8.682443E-2,4.126252E-2,-6.4945257E-1],"categories":[],"categories_nodes":[],"categories_segments":[],"categories_sizes":[],"default_left":[1,1,1,1,1,1,1,0,0,0,0,0,0,0,0],"id":21,"left_children":[1,3,5,7,9,11,13,-1,-1,-1,-1,-1,-1,-1,-1],"loss_changes":[3.58061E1,1.4254623E1,2.32526E1,1.7179497E1,1.3044996E0,1.2746988E1,1.3325924E1,0E0,0E0,0E0,0E0,0E0,0E0,0E0,0E0],"parents":[2147483647,0,0,1,1,2,2,3,3,4,4,5,5,6,6],"right_children":[2,4,6,8,10,12,14,-1,-1,-1,-1,-1,-1,-1,-1],"split_conditions":[4.35E1,2.5E0,5E-1,1.5E0,3.55E1,5E-1,5.75E1,-2.551747E-2,-6.7079775E-2,1.0973621E-2,7.222632E-2,7.573582E-2,8.682444E-3,4.126252E-3,-6.494526E-2],"split_indices":[3,6,8,6,3,2,3,0,0,0,0,0,0,0,0],"split_type":[0,0,0,0,0,0,0,0,0,0,0,0,0,0,0],"sum_hessian":[6.742448E2,4.3932922E2,2.3491563E2,4.2340738E2,1.5921826E1,1.13026146E2,1.2188948E2,2.618269E2,1.6158049E2,5.6107707E0,1.0311056E1,5.6919476E1,5.6106674E1,8.008875E1,4.1800728E1],"tree_param":{"num_deleted":"0","num_feature":"10","num_nodes":"15","size_leaf_vector":"0"}},{"base_weights":[-1.9361241E-1,-3.8914186E-1,6.571334E-2,-2.4938549E-1,-5.978094E-1,1.2851916E-1,-8.256299E-1,3.5381094E-1,-3.755559E-1,-6.905466E-1,3.1872585E-1,3.024876E-1,-1.726397E-1,-5.9147066E-1,-1.0680678E0],"categories":[],"categories_nodes":[],"categories_segments":[],"categories_sizes":[],"default_left":[1,1,1,1,1,1,1,0,0,0,0,0,0,1,1],"id":22,"left_children":[1,3,5,7,9,11,-1,-1,-1,-1,-1,-1,-1,-1,-1],"loss_changes":[3.388624E1,1.09580345E1,1.6224215E1,1.7622993E1,1.314426E1,1.418928E1,4.5179844E-1,0E0,0E0,0E0,0E0,0E0,0E0,0E0,0E0],"parents":[2147483647,0,0,1,1,2,2,3,3,4,4,5,5,6,6],"right_children":[2,4,6,8,10,12,-1,-1,-1,-1,-1,-1,-1,-1,-1],"split_conditions":[4.15E1,1.5E0,6.55E1,5.75495E4,2.5E0,1.5E0,-8.256299E-2,3.5381094E-2,-3.755559E-2,-6.9054656E-2,3.1872585E-2,3.0248761E-2,-1.726397E-2,-5.9147067E-2,-1.0680678E-1],"split_indices":[3,6,3,5,6,6,3,0,0,0,0,0,0,2147483647,2147483647],"split_type":[0,0,0,0,0,0,0,0,0,0,0,0,0,0,0],"sum_hessian":[6.667867E2,3.7986847E2,2.8691824E2,2.2881401E2,1.5105446E2,2.6883163E2,1.80866E1,3.9269566E1,1.8954443E2,1.373987E2,1.3655757E1,1.703958E2,9.843583E1,1.0950098E1,7.136501E0],"tree_param":{"num_deleted":"2","num_feature":"10","num_nodes":"15","size_leaf_vector":"0"}},{"base_weights":[-2.2026917E-1,-5.511631E-1,-8.501061E-2,-6.880804E-1,-3.9499778E-1,-2.1908744E-1,2.1565652E-1,-7.89554E-1,-4.7153792E-1,-5.7187426E-1,-1.0472075E-1,-2.5838357E-1,1.1418726E0,3.325275E-1,-1.0917146E0],"categories":[],"categories_nodes":[],"categories_segments":[],"categories_sizes":[],"default_left":[1,1,1,1,1,1,1,0,0,0,0,0,0,0,0],"id":23,"left_children":[1,3,5,7,9,11,13,-1,-1,-1,-1,-1,-1,-1,-1],"loss_changes":[2.8617079E1,3.6977081E0,1.8421545E1,1.771698E0,4.5135593E0,1.718006E1,2.1918175E1,0E0,0E0,0E0,0E0,0E0,0E0,0E0,0E0],"parents":[2147483647,0,0,1,1,2,2,3,3,4,4,5,5,6,6],"right_children":[2,4,6,8,10,12,14,-1,-1,-1,-1,-1,-1,-1,-1],"split_conditions":[3.45E1,1.0473689E5,5E-1,1.3575728E5,5E-1,1.7808872E5,1.5441666E5,-7.8955404E-2,-4.7153793E-2,-5.7187427E-2,-1.0472075E-2,-2.5838358E-2,1.1418726E-1,3.325275E-2,-1.09171465E-1],"split_indices":[3,5,1,9,1,5,5,0,0,0,0,0,0,0,0],"split_type":[0,0,0,0,0,0,0,0,0,0,0,0,0,0,0],"sum_hessian":[6.394456E2,1.84649E2,4.5479663E2,9.657295E1,8.807605E1,3.1472314E2,1.400735E2,6.3956303E1,3.2616653E1,5.412537E1,3.395068E1,3.066783E2,8.04483E0,1.2926376E2,1.0809738E1],"tree_param":{"num_deleted":"0","num_feature":"10","num_nodes":"15","size_leaf_vector":"0"}},{"base_weights":[-1.7584725E-1,-4.764744E-1,-1.0720017E-2,-3.643998E-1,-6.530628E-1,1.5180717E-1,-2.9482496E-1,1.8185814E-1,-4.7683135E-1,-7.428884E-1,2.1344747E-1,-7.888979E-3,4.7488663E-1,-4.457207E-1,8.4127676E-1],"categories":[],"categories_nodes":[],"categories_segments":[],"categories_sizes":[],"default_left":[1,1,1,1,1,1,1,0,0,0,0,0,0,0,0],"id":24,"left_children":[1,3,5,7,9,11,13,-1,-1,-1,-1,-1,-1,-1,-1],"loss_changes":[3.199791E1,4.2850723E0,1.9306095E1,8.812222E0,6.966717E0,1.3728146E1,2.6455921E1,0E0,0E0,0E0,0E0,0E0,0E0,0E0,0E0],"parents":[2147483647,0,0,1,1,2,2,3,3,4,4,5,5,6,6],"right_children":[2,4,6,8,10,12,14,-1,-1,-1,-1,-1,-1,-1,-1],"split_conditions":[3.65E1,1.5E0,1.5E0,5.7593773E4,2.5E0,5E-1,2.5E0,1.8185815E-2,-4.7683135E-2,-7.428884E-2,2.1344747E-2,-7.888979E-4,4.7488663E-2,-4.457207E-2,8.412768E-2],"split_indices":[3,6,6,5,6,1,6,0,0,0,0,0,0,0,0],"split_type":[0,0,0,0,0,0,0,0,0,0,0,0,0,0,0],"sum_hessian":[6.4367975E2,2.2753992E2,4.1613983E2,1.4107072E2,8.646919E1,2.6500485E2,1.51135E2,2.3973928E1,1.1709679E2,7.8476685E1,7.9925127E0,1.7799742E2,8.700744E1,1.3395139E2,1.7183596E1],"tree_param":{"num_deleted":"0","num_feature":"10","num_nodes":"15","size_leaf_vector":"0"}},{"base_weights":[-1.5660106E-1,6.805484E-2,-3.823782E-1,-5.562411E-2,4.986737E-1,-4.0168336E-1,1.8960308E0,1.08934976E-1,-3.2276702E-1,5.598906E-1,-6.9073534E-1,-7.024107E-1,-2.581224E-1],"categories":[],"categories_nodes":[],"categories_segments":[],"categories_sizes":[],"default_left":[1,1,1,1,1,1,0,0,0,0,0,0,0],"id":25,"left_children":[1,3,5,7,9,11,-1,-1,-1,-1,-1,-1,-1],"loss_changes":[3.1996038E1,1.6899055E1,1.4595558E1,1.0893422E1,5.5405846E0,1.3318687E1,0E0,0E0,0E0,0E0,0E0,0E0,0E0],"parents":[2147483647,0,0,1,1,2,2,3,3,4,4,5,5],"right_children":[2,4,6,8,10,12,-1,-1,-1,-1,-1,-1,-1],"split_conditions":[5E-1,4.65E1,1.9870272E5,1.5E0,6.85E1,3.55E1,1.8960308E-1,1.0893498E-2,-3.22767E-2,5.5989064E-2,-6.9073536E-2,-7.024107E-2,-2.5812242E-2],"split_indices":[8,3,5,6,3,3,0,0,0,0,0,0,0],"split_type":[0,0,0,0,0,0,0,0,0,0,0,0,0],"sum_hessian":[6.2929675E2,3.1578177E2,3.1351498E2,2.4599878E2,6.9783E1,3.1169763E2,1.8173405E0,1.5259378E2,9.340501E1,6.687055E1,2.9124472E0,9.9459656E1,2.1223799E2],"tree_param":{"num_deleted":"0","num_feature":"10","num_nodes":"13","size_leaf_vector":"0"}},{"base_weights":[-1.620929E-1,-2.9781696E-1,7.523974E-2,-3.3130056E-1,4.4606134E-1,1.3731752E-1,-9.3916446E-1,-1.950478E-1,-5.8876634E-1,5.0475484E-1,-2.4180934E-1,-1.2803313E-2,4.4480845E-1,-1.0457758E0,6.506346E-2],"categories":[],"categories_nodes":[],"categories_segments":[],"categories_sizes":[],"default_left":[1,1,1,1,1,1,1,0,0,0,0,0,0,0,0],"id":26,"left_children":[1,3,5,7,9,11,13,-1,-1,-1,-1,-1,-1,-1,-1],"loss_changes":[1.9988598E1,9.974747E0,1.4379949E1,1.3149593E1,8.25367E-1,9.890049E0,1.4789124E0,0E0,0E0,0E0,0E0,0E0,0E0,0E0,0E0],"parents":[2147483647,0,0,1,1,2,2,3,3,4,4,5,5,6,6],"right_children":[2,4,6,8,10,12,14,-1,-1,-1,-1,-1,-1,-1,-1],"split_conditions":[4.35E1,2.5E0,6.85E1,1.5E0,1.8704973E5,5E-1,1.8410028E5,-1.950478E-2,-5.8876634E-2,5.0475486E-2,-2.4180934E-2,-1.2803314E-3,4.4480845E-2,-1.0457758E-1,6.506346E-3],"split_indices":[3,6,3,6,9,1,9,0,0,0,0,0,0,0,0],"split_type":[0,0,0,0,0,0,0,0,0,0,0,0,0,0,0],"sum_hessian":[6.1884186E2,3.9353503E2,2.2530682E2,3.771149E2,1.6420134E1,2.1312877E2,1.217806E1,2.4775743E2,1.2935747E2,1.5374492E1,1.0456418E0,1.4385524E2,6.927353E1,1.0971885E1,1.206175E0],"tree_param":{"num_deleted":"0","num_feature":"10","num_nodes":"15","size_leaf_vector":"0"}},{"base_weights":[-1.3730139E-1,7.0134066E-2,-3.1843898E-1,-4.589175E-2,3.5736078E-1,-3.563372E-1,5.929239E-1,-8.9096196E-2,6.603524E-1,4.577496E-1,-5.996575E-1,-2.1479526E-1,-6.341698E-1,2.7826857E-2,8.86606E-1],"categories":[],"categories_nodes":[],"categories_segments":[],"categories_sizes":[],"default_left":[1,1,1,1,1,1,1,0,0,0,0,0,0,0,0],"id":27,"left_children":[1,3,5,7,9,11,13,-1,-1,-1,-1,-1,-1,-1,-1],"loss_changes":[2.2734348E1,9.434011E0,1.1362629E1,6.227628E0,8.097105E0,1.2077999E1,2.176825E0,0E0,0E0,0E0,0E0,0E0,0E0,0E0,0E0],"parents":[2147483647,0,0,1,1,2,2,3,3,4,4,5,5,6,6],"right_children":[2,4,6,8,10,12,14,-1,-1,-1,-1,-1,-1,-1,-1],"split_conditions":[5E-1,4.65E1,2.5E0,9.5E0,6.65E1,1.5E0,2.188633E4,-8.909619E-3,6.603524E-2,4.5774963E-2,-5.996575E-2,-2.1479527E-2,-6.341698E-2,2.7826857E-3,8.86606E-2],"split_indices":[2,3,6,4,3,6,5,0,0,0,0,0,0,0,0],"split_type":[0,0,0,0,0,0,0,0,0,0,0,0,0,0,0],"sum_hessian":[6.034552E2,2.8159293E2,3.2186224E2,2.0117009E2,8.0422844E1,3.0959695E2,1.226531E1,1.9039644E2,1.0773646E1,7.3259766E1,7.163074E0,2.0628043E2,1.0331652E2,4.568825E0,7.696486E0],"tree_param":{"num_deleted":"0","num_feature":"10","num_nodes":"15","size_leaf_vector":"0"}},{"base_weights":[-1.3569906E-1,-2.4005125E-1,1.08259715E-1,-5.007095E-2,-3.9595947E-1,2.394043E-1,-8.4636027E-1,-2.1437588E-1,3.468651E-1,-4.259569E-1,6.749512E-1,-7.10048E-1,4.245882E-1,-3.927817E-1,-1.1926086E0],"categories":[],"categories_nodes":[],"categories_segments":[],"categories_sizes":[],"default_left":[1,1,1,1,1,1,1,0,0,0,0,0,0,0,0],"id":28,"left_children":[1,3,5,7,9,11,13,-1,-1,-1,-1,-1,-1,-1,-1],"loss_changes":[1.5332636E1,1.2462893E1,2.28405E1,1.2538003E1,7.7188835E0,2.8391384E1,2.996316E0,0E0,0E0,0E0,0E0,0E0,0E0,0E0,0E0],"parents":[2147483647,0,0,1,1,2,2,3,3,4,4,5,5,6,6],"right_children":[2,4,6,8,10,12,14,-1,-1,-1,-1,-1,-1,-1,-1],"split_conditions":[5E-1,5E-1,1.4922478E5,1.3966278E5,1.8009322E5,9.271217E4,1.5688684E5,-2.143759E-2,3.468651E-2,-4.2595692E-2,6.749512E-2,-7.10048E-2,4.245882E-2,-3.9278172E-2,-1.1926086E-1],"split_indices":[1,2,5,9,5,5,5,0,0,0,0,0,0,0,0],"split_type":[0,0,0,0,0,0,0,0,0,0,0,0,0,0,0],"sum_hessian":[6.002596E2,4.2043607E2,1.7982347E2,1.9010582E2,2.3033026E2,1.5876213E2,2.1061342E1,1.3477707E2,5.5328754E1,2.2464009E2,5.690176E0,2.5448977E1,1.3331316E2,1.0041528E1,1.10198145E1],"tree_param":{"num_deleted":"0","num_feature":"10","num_nodes":"15","size_leaf_vector":"0"}},{"base_weights":[-1.2149755E-1,-4.019223E-1,-1.8998869E-2,-5.72168E-1,-2.2355683E-1,1.52273E-1,-1.93605E-1,-6.107972E-1,3.6062166E-1,3.9446358E-2,-6.092031E-1,5.6823038E-2,8.103859E-1,-2.1326648E-1,1.3068674E0],"categories":[],"categories_nodes":[],"categories_segments":[],"categories_sizes":[],"default_left":[1,1,1,1,1,1,1,0,0,0,0,0,0,0,0],"id":29,"left_children":[1,3,5,7,9,11,13,-1,-1,-1,-1,-1,-1,-1,-1],"loss_changes":[1.7106447E1,4.710211E0,1.3100611E1,3.1345348E0,8.082285E0,1.3849657E1,6.6769E0,0E0,0E0,0E0,0E0,0E0,0E0,0E0,0E0],"parents":[2147483647,0,0,1,1,2,2,3,3,4,4,5,5,6,6],"right_children":[2,4,6,8,10,12,14,-1,-1,-1,-1,-1,-1,-1,-1],"split_conditions":[3.45E1,1.0473689E5,5E-1,2.5E0,5E-1,5.25E1,2.0161355E5,-6.1079722E-2,3.6062166E-2,3.944636E-3,-6.092031E-2,5.682304E-3,8.103859E-2,-2.1326648E-2,1.3068675E-1],"split_indices":[3,5,8,6,0,3,5,0,0,0,0,0,0,0,0],"split_type":[0,0,0,0,0,0,0,0,0,0,0,0,0,0,0],"sum_hessian":[5.9441394E2,1.5832729E2,4.360867E2,7.987786E1,7.8449425E1,2.2020985E2,2.1587683E2,7.703292E1,2.8449395E0,4.717483E1,3.1274595E1,1.9326575E2,2.6944117E1,2.1393144E2,1.9453874E0],"tree_param":{"num_deleted":"0","num_feature":"10","num_nodes":"15","size_leaf_vector":"0"}},{"base_weights":[-8.712961E-2,-3.6590052E-1,3.0766144E-2,-1.4973283E-1,-5.810744E-1,1.8509269E-1,-1.279975E-1,9.437111E-2,-3.9708555E-1,-7.2610384E-1,-2.955108E-1,8.391688E-2,8.756086E-1,2.206999E-1,-2.2868139E-1],"categories":[],"categories_nodes":[],"categories_segments":[],"categories_sizes":[],"default_left":[1,1,1,1,1,1,1,0,0,0,0,0,0,0,0],"id":30,"left_children":[1,3,5,7,9,11,13,-1,-1,-1,-1,-1,-1,-1,-1],"loss_changes":[1.9669378E1,8.185532E0,1.0345643E1,5.4757686E0,3.4624157E0,1.4879665E1,7.361603E0,0E0,0E0,0E0,0E0,0E0,0E0,0E0,0E0],"parents":[2147483647,0,0,1,1,2,2,3,3,4,4,5,5,6,6],"right_children":[2,4,6,8,10,12,14,-1,-1,-1,-1,-1,-1,-1,-1],"split_conditions":[3.55E1,5E-1,5E-1,5E-1,1.3322044E5,5.25E1,4.7045617E4,9.437111E-3,-3.9708555E-2,-7.2610386E-2,-2.955108E-2,8.391689E-3,8.756086E-2,2.206999E-2,-2.286814E-2],"split_indices":[3,8,8,0,9,3,9,0,0,0,0,0,0,0,0],"split_type":[0,0,0,0,0,0,0,0,0,0,0,0,0,0,0],"sum_hessian":[5.9713116E2,1.7685182E2,4.2027936E2,8.906816E1,8.778366E1,2.1303368E2,2.0724568E2,4.5139755E1,4.3928406E1,5.7193867E1,3.0589796E1,1.8678682E2,2.6246857E1,4.616633E1,1.6107935E2],"tree_param":{"num_deleted":"0","num_feature":"10","num_nodes":"15","size_leaf_vector":"0"}},{"base_weights":[-1.13909766E-1,7.34722E-2,-2.882373E-1,-3.713284E-2,4.4476792E-1,-9.8674074E-2,-4.7023264E-1,9.50378E-2,-2.6672217E-1,5.663538E-1,-5.77977E-1,-1.9849238E-1,2.2956172E-1,-4.8966265E-1,1.1646894E0],"categories":[],"categories_nodes":[],"categories_segments":[],"categories_sizes":[],"default_left":[1,1,1,1,1,1,1,0,0,0,0,0,0,0,0],"id":31,"left_children":[1,3,5,7,9,11,13,-1,-1,-1,-1,-1,-1,-1,-1],"loss_changes":[1.9030073E1,1.15668955E1,1.0360895E1,6.6291842E0,8.36422E0,4.9282265E0,5.4508705E0,0E0,0E0,0E0,0E0,0E0,0E0,0E0,0E0],"parents":[2147483647,0,0,1,1,2,2,3,3,4,4,5,5,6,6],"right_children":[2,4,6,8,10,12,14,-1,-1,-1,-1,-1,-1,-1,-1],"split_conditions":[5E-1,4.85E1,5E-1,1.5E0,6.65E1,4.55E1,1.9922044E5,9.503781E-3,-2.6672218E-2,5.663538E-2,-5.77977E-2,-1.9849239E-2,2.2956172E-2,-4.8966266E-2,1.1646894E-1],"split_indices":[2,3,8,6,3,3,5,0,0,0,0,0,0,0,0],"split_type":[0,0,0,0,0,0,0,0,0,0,0,0,0,0,0],"sum_hessian":[5.809198E2,2.8025577E2,3.0066403E2,2.1662537E2,6.3630398E1,1.4802542E2,1.526386E2,1.3785223E2,7.877312E1,5.7268456E1,6.3619423E0,1.1381035E2,3.4215076E1,1.5153816E2,1.1004359E0],"tree_param":{"num_deleted":"0","num_feature":"10","num_nodes":"15","size_leaf_vector":"0"}},{"base_weights":[-8.327808E-2,-1.1770647E-1,6.812724E-1,2.1992737E-2,-4.0424666E-1,3.0049187E-1,9.2321104E-1,6.467657E-1,-1.1864661E-1,-6.966204E-1,-1.1192481E-1,2.822349E-2,9.864606E-1,1.0870667E0,7.538911E-3],"categories":[],"categories_nodes":[],"categories_segments":[],"categories_sizes":[],"default_left":[1,1,1,1,1,1,1,0,0,0,0,0,0,0,0],"id":32,"left_children":[1,3,5,7,9,11,13,-1,-1,-1,-1,-1,-1,-1,-1],"loss_changes":[1.5124147E1,2.193523E1,2.0049782E0,3.2515537E1,1.5270025E1,2.0467844E0,2.192378E0,0E0,0E0,0E0,0E0,0E0,0E0,0E0,0E0],"parents":[2147483647,0,0,1,1,2,2,3,3,4,4,5,5,6,6],"right_children":[2,4,6,8,10,12,14,-1,-1,-1,-1,-1,-1,-1,-1],"split_conditions":[2.5E0,1.5E0,2.188633E4,5.7593773E4,2.3913375E4,1.3269548E5,1.745915E5,6.4676575E-2,-1.1864661E-2,-6.966204E-2,-1.1192481E-2,2.822349E-3,9.864607E-2,1.0870667E-1,7.5389113E-4],"split_indices":[6,6,5,5,5,9,9,0,0,0,0,0,0,0,0],"split_type":[0,0,0,0,0,0,0,0,0,0,0,0,0,0,0],"sum_hessian":[5.705303E2,5.4675543E2,2.377484E1,3.6817798E2,1.7857748E2,1.0108061E1,1.3666778E1,6.698897E1,3.01189E2,8.858934E1,8.998814E1,7.9813294E0,2.1267314E0,1.1433605E1,2.2331731E0],"tree_param":{"num_deleted":"0","num_feature":"10","num_nodes":"15","size_leaf_vector":"0"}},{"base_weights":[-7.98257E-2,-3.3296132E-1,7.1311314E-3,-5.1198053E-1,-1.2779881E-1,-9.207472E-2,2.226172E-1,-3.715093E-1,-8.0443877E-1,1.299077E0,-1.9577794E-1,9.209083E-2,-2.995858E-1,3.1305185E-1,-9.9083257E-1],"categories":[],"categories_nodes":[],"categories_segments":[],"categories_sizes":[],"default_left":[1,1,1,1,1,1,1,0,0,0,0,0,0,0,0],"id":33,"left_children":[1,3,5,7,9,11,13,-1,-1,-1,-1,-1,-1,-1,-1],"loss_changes":[1.2623709E1,5.319929E0,9.164917E0,2.9043198E0,7.0109735E0,1.1248563E1,1.5140462E1,0E0,0E0,0E0,0E0,0E0,0E0,0E0,0E0],"parents":[2147483647,0,0,1,1,2,2,3,3,4,4,5,5,6,6],"right_children":[2,4,6,8,10,12,14,-1,-1,-1,-1,-1,-1,-1,-1],"split_conditions":[3.45E1,1.0780305E5,5E-1,8.355167E4,1.0908532E5,9.434234E4,1.5564856E5,-3.715093E-2,-8.044388E-2,1.2990771E-1,-1.9577794E-2,9.209083E-3,-2.995858E-2,3.1305186E-2,-9.908326E-2],"split_indices":[3,5,1,5,5,5,5,0,0,0,0,0,0,0,0],"split_type":[0,0,0,0,0,0,0,0,0,0,0,0,0,0,0],"sum_hessian":[5.723876E2,1.4562807E2,4.2675952E2,7.697035E1,6.865771E1,2.926168E2,1.3414272E2,5.35297E1,2.3440655E1,2.2986803E0,6.635903E1,1.5532365E2,1.3729314E2,1.2552942E2,8.613304E0],"tree_param":{"num_deleted":"0","num_feature":"10","num_nodes":"15","size_leaf_vector":"0"}},{"base_weights":[-6.618613E-2,8.637566E-2,-2.2216128E-1,1.7205056E-2,7.790635E-1,-2.4237837E-1,1.5339592E0,1.5942931E-1,-2.4844441E-1,9.301381E-1,-3.2651016E-1,-4.6488047E-1,-1.4972092E-1],"categories":[],"categories_nodes":[],"categories_segments":[],"categories_sizes":[],"default_left":[1,1,1,1,1,1,0,0,0,0,0,0,0],"id":34,"left_children":[1,3,5,7,9,11,-1,-1,-1,-1,-1,-1,-1],"loss_changes":[1.3481515E1,1.372443E1,1.031359E1,9.927537E0,4.647888E0,5.6555576E0,0E0,0E0,0E0,0E0,0E0,0E0,0E0],"parents":[2147483647,0,0,1,1,2,2,3,3,4,4,5,5],"right_children":[2,4,6,8,10,12,-1,-1,-1,-1,-1,-1,-1],"split_conditions":[5E-1,5.25E1,1.9870272E5,1.5E0,6.75E1,3.55E1,1.5339592E-1,1.5942931E-2,-2.4844442E-2,9.3013816E-2,-3.265102E-2,-4.6488047E-2,-1.4972093E-2],"split_indices":[8,3,5,6,3,3,0,0,0,0,0,0,0],"split_type":[0,0,0,0,0,0,0,0,0,0,0,0,0],"sum_hessian":[5.6474255E2,2.8572073E2,2.790218E2,2.607114E2,2.5009348E1,2.7669833E2,2.323469E0,1.7006259E2,9.06488E1,2.2142324E1,2.8670244E0,8.016872E1,1.9652962E2],"tree_param":{"num_deleted":"0","num_feature":"10","num_nodes":"13","size_leaf_vector":"0"}},{"base_weights":[-1.0229907E-1,-2.0099317E-1,1.5853672E-1,-4.0547114E-2,-3.4083584E-1,2.6103982E-1,-5.582153E-1,2.0368162E-1,-1.2075296E-1,-4.5408463E-1,-4.4491954E-2,5.252309E-1,4.0494636E-2,-2.0425964E-2,-7.2599024E-1],"categories":[],"categories_nodes":[],"categories_segments":[],"categories_sizes":[],"default_left":[1,1,1,1,1,1,1,0,0,0,0,0,0,0,0],"id":35,"left_children":[1,3,5,7,9,11,13,-1,-1,-1,-1,-1,-1,-1,-1],"loss_changes":[1.4556897E1,9.180666E0,1.1566229E1,3.7850251E0,7.3234177E0,7.942443E0,1.7687564E0,0E0,0E0,0E0,0E0,0E0,0E0,0E0,0E0],"parents":[2147483647,0,0,1,1,2,2,3,3,4,4,5,5,6,6],"right_children":[2,4,6,8,10,12,14,-1,-1,-1,-1,-1,-1,-1,-1],"split_conditions":[4.65E1,5E-1,6.45E1,5.411265E4,5E-1,4.5E0,5E-1,2.0368163E-2,-1.2075297E-2,-4.5408465E-2,-4.4491957E-3,5.2523088E-2,4.0494637E-3,-2.0425965E-3,-7.259902E-2],"split_indices":[3,2,3,9,1,4,8,0,0,0,0,0,0,0,0],"split_type":[0,0,0,0,0,0,0,0,0,0,0,0,0,0,0],"sum_hessian":[5.632334E2,4.0878738E2,1.5444603E2,1.909706E2,2.1781679E2,1.3567839E2,1.876764E1,4.683065E1,1.4413994E2,1.5720724E2,6.060955E1,6.1102364E1,7.457603E1,4.729462E0,1.4038177E1],"tree_param":{"num_deleted":"0","num_feature":"10","num_nodes":"15","size_leaf_vector":"0"}},{"base_weights":[-4.9499538E-2,-8.453425E-2,6.6755855E-1,3.467073E-2,-3.4477475E-1,1.8398306E-1,1.0415763E0,4.90977E-1,-6.846497E-2,-6.375579E-1,-6.738449E-2,-1.5077987E-1,1.122505E0,1.1518153E0,2.787271E-1],"categories":[],"categories_nodes":[],"categories_segments":[],"categories_sizes":[],"default_left":[1,1,1,1,1,1,1,0,0,0,0,0,0,0,0],"id":36,"left_children":[1,3,5,7,9,11,13,-1,-1,-1,-1,-1,-1,-1,-1],"loss_changes":[1.4230872E1,1.6727522E1,4.582449E0,1.7468107E1,1.3712292E1,4.1676483E0,9.125891E-1,0E0,0E0,0E0,0E0,0E0,0E0,0E0,0E0],"parents":[2147483647,0,0,1,1,2,2,3,3,4,4,5,5,6,6],"right_children":[2,4,6,8,10,12,14,-1,-1,-1,-1,-1,-1,-1,-1],"split_conditions":[2.5E0,1.5E0,2.188633E4,5.763791E4,2.3913375E4,1.3135823E5,1.745915E5,4.90977E-2,-6.8464973E-3,-6.3755795E-2,-6.738449E-3,-1.5077988E-2,1.122505E-1,1.1518153E-1,2.7872711E-2],"split_indices":[6,6,5,5,5,9,9,0,0,0,0,0,0,0,0],"split_type":[0,0,0,0,0,0,0,0,0,0,0,0,0,0,0],"sum_hessian":[5.632258E2,5.378301E2,2.5395712E1,3.6946216E2,1.6836795E2,1.1726358E1,1.3669353E1,6.7418785E1,3.0204337E2,8.127959E1,8.708836E1,9.262017E0,2.4643412E0,1.1497907E1,2.1714454E0],"tree_param":{"num_deleted":"0","num_feature":"10","num_nodes":"15","size_leaf_vector":"0"}},{"base_weights":[-2.1359509E-2,1.5764311E-1,-1.9545317E-1,2.3180756E-1,-1.2759279E-1,-4.742401E-1,-9.650642E-2,2.537293E-1,-9.5161426E-1,-3.0361298E-1,6.6867656E-1,-5.166915E-1,6.1049646E-1,-1.17338255E-1,1.3201456E0],"categories":[],"categories_nodes":[],"categories_segments":[],"categories_sizes":[],"default_left":[1,1,1,1,1,1,1,0,0,0,0,0,0,0,0],"id":37,"left_children":[1,3,5,7,9,11,13,-1,-1,-1,-1,-1,-1,-1,-1],"loss_changes":[1.7134806E1,5.765885E0,7.6418514E0,5.8337345E0,8.136239E0,3.665306E0,6.262047E0,0E0,0E0,0E0,0E0,0E0,0E0,0E0,0E0],"parents":[2147483647,0,0,1,1,2,2,3,3,4,4,5,5,6,6],"right_children":[2,4,6,8,10,12,14,-1,-1,-1,-1,-1,-1,-1,-1],"split_conditions":[5E-1,1.3667028E5,3.45E1,7.05E1,4.95E1,2.5E0,1.9255094E5,2.5372932E-2,-9.516143E-2,-3.0361298E-2,6.686766E-2,-5.166915E-2,6.1049648E-2,-1.1733825E-2,1.3201456E-1],"split_indices":[2,5,3,3,3,6,5,0,0,0,0,0,0,0,0],"split_type":[0,0,0,0,0,0,0,0,0,0,0,0,0,0,0],"sum_hessian":[5.47852E2,2.701643E2,2.776877E2,2.1456291E2,5.5601387E1,7.174632E1,2.0594138E2,2.1143195E2,3.1309786E0,4.6042187E1,9.559199E0,6.95482E1,2.198115E0,2.0386078E2,2.0805962E0],"tree_param":{"num_deleted":"0","num_feature":"10","num_nodes":"15","size_leaf_vector":"0"}},{"base_weights":[-5.703631E-2,-8.829957E-2,6.518008E-1,4.6317823E-2,-3.818178E-1,2.1130355E-1,9.6728396E-1,5.2010256E-1,-6.3024454E-2,-6.611771E-1,-1.3142373E-1,7.367763E-1,-1.04294896E-1,4.5124108E-1,1.1472839E0],"categories":[],"categories_nodes":[],"categories_segments":[],"categories_sizes":[],"default_left":[1,1,1,1,1,1,1,0,0,0,0,0,0,0,0],"id":38,"left_children":[1,3,5,7,9,11,13,-1,-1,-1,-1,-1,-1,-1,-1],"loss_changes":[1.2162739E1,2.0724499E1,3.018857E0,1.8691273E1,1.1446817E1,1.8942178E0,7.1168613E-1,0E0,0E0,0E0,0E0,0E0,0E0,0E0,0E0],"parents":[2147483647,0,0,1,1,2,2,3,3,4,4,5,5,6,6],"right_children":[2,4,6,8,10,12,14,-1,-1,-1,-1,-1,-1,-1,-1],"split_conditions":[2.5E0,1.5E0,4.05E1,4.2251047E4,2.3913375E4,2.5E0,7.299919E4,5.2010257E-2,-6.3024457E-3,-6.611771E-2,-1.31423725E-2,7.367763E-2,-1.0429489E-2,4.512411E-2,1.1472839E-1],"split_indices":[6,6,3,5,5,4,9,0,0,0,0,0,0,0,0],"split_type":[0,0,0,0,0,0,0,0,0,0,0,0,0,0,0],"sum_hessian":[5.452491E2,5.230552E2,2.219392E1,3.591699E2,1.6388528E2,9.958717E0,1.2235203E1,6.664362E1,2.9252628E2,7.668686E1,8.7198425E1,3.2360847E0,6.7226324E0,4.07098E0,8.164223E0],"tree_param":{"num_deleted":"0","num_feature":"10","num_nodes":"15","size_leaf_vector":"0"}},{"base_weights":[-6.2094584E-2,-7.67284E-2,1.7760714E0,8.0517456E-2,-2.4277616E-1,1.15740355E-2,6.685696E-1,-4.7462034E-1,-1.5182783E-1],"categories":[],"categories_nodes":[],"categories_segments":[],"categories_sizes":[],"default_left":[1,1,0,1,1,0,0,0,0],"id":39,"left_children":[1,3,-1,5,7,-1,-1,-1,-1],"loss_changes":[1.4974654E1,1.4333926E1,0E0,1.1438466E1,5.5557423E0,0E0,0E0,0E0,0E0],"parents":[2147483647,0,0,1,1,3,3,4,4],"right_children":[2,4,-1,6,8,-1,-1,-1,-1],"split_conditions":[1.9832997E5,5E-1,1.7760715E-1,5.15E1,3.55E1,1.1574036E-3,6.6856965E-2,-4.7462035E-2,-1.5182783E-2],"split_indices":[5,8,0,3,3,0,0,0,0],"split_type":[0,0,0,0,0,0,0,0,0],"sum_hessian":[5.5062506E2,5.472268E2,3.3982682E0,2.8132727E2,2.6589954E2,2.527182E2,2.860908E1,7.372986E1,1.9216968E2],"tree_param":{"num_deleted":"0","num_feature":"10","num_nodes":"9","size_leaf_vector":"0"}},{"base_weights":[-2.0228961E-2,-3.3874754E-2,1.5856373E0,-6.629358E-2,6.574454E-1,5.306439E-2,-3.3185697E-1,2.8335127E-1,1.0011014E0],"categories":[],"categories_nodes":[],"categories_segments":[],"categories_sizes":[],"default_left":[1,1,0,1,1,0,0,0,0],"id":40,"left_children":[1,3,-1,5,7,-1,-1,-1,-1],"loss_changes":[1.1864308E1,1.2043003E1,0E0,1.625706E1,2.811327E0,0E0,0E0,0E0,0E0],"parents":[2147483647,0,0,1,1,3,3,4,4],"right_children":[2,4,-1,6,8,-1,-1,-1,-1],"split_conditions":[2.005237E5,2.5E0,1.5856373E-1,1.5E0,4.05E1,5.306439E-3,-3.3185698E-2,2.8335128E-2,1.00110136E-1],"split_indices":[5,6,0,6,3,0,0,0,0],"split_type":[0,0,0,0,0,0,0,0,0],"sum_hessian":[5.3796875E2,5.3440656E2,3.5621953E0,5.113322E2,2.3074354E1,3.533283E2,1.580039E2,1.1921486E1,1.1152868E1],"tree_param":{"num_deleted":"0","num_feature":"10","num_nodes":"9","size_leaf_vector":"0"}},{"base_weights":[-1.3992346E-2,1.281313E-1,-1.4912742E-1,3.6648166E-1,4.195685E-2,-2.4403019E-1,8.488947E-2,1.60273E-1,9.925096E-1,-1.9917174E-1,2.1463077E-1,-2.997992E-1,1.6332093E-1,2.0860533E-1,-6.160354E-1],"categories":[],"categories_nodes":[],"categories_segments":[],"categories_sizes":[],"default_left":[1,1,1,1,1,1,1,0,0,0,0,0,0,0,0],"id":41,"left_children":[1,3,5,7,9,11,13,-1,-1,-1,-1,-1,-1,-1,-1],"loss_changes":[1.0267695E1,5.3377075E0,6.1058474E0,8.758134E0,8.059671E0,4.483391E0,7.048196E0,0E0,0E0,0E0,0E0,0E0,0E0,0E0,0E0],"parents":[2147483647,0,0,1,1,2,2,3,3,4,4,5,5,6,6],"right_children":[2,4,6,8,10,12,14,-1,-1,-1,-1,-1,-1,-1,-1],"split_conditions":[5E-1,5.310145E4,4.55E1,4.068678E4,1.1505634E5,1.7804814E5,6.35E1,1.60273E-2,9.9250965E-2,-1.9917173E-2,2.1463078E-2,-2.997992E-2,1.6332094E-2,2.0860534E-2,-6.1603542E-2],"split_indices":[2,9,3,9,9,9,3,0,0,0,0,0,0,0,0],"split_type":[0,0,0,0,0,0,0,0,0,0,0,0,0,0,0],"sum_hessian":[5.3261694E2,2.596212E2,2.7299576E2,6.8076164E1,1.9154501E2,1.941982E2,7.879756E1,5.2153297E1,1.5922868E1,7.986498E1,1.1168002E2,1.7104506E2,2.3153147E1,6.757305E1,1.1224512E1],"tree_param":{"num_deleted":"0","num_feature":"10","num_nodes":"15","size_leaf_vector":"0"}},{"base_weights":[-3.427228E-2,-1.3054585E-1,1.7521542E-1,-1.6158058E-1,1.0314127E0,2.9839468E-1,-9.507669E-1,-2.4930933E-1,5.3410046E-2,1.5956302E0,6.315831E-1,-4.6061498E-1,4.698511E-1,-5.1220995E-1,-1.0822885E0],"categories":[],"categories_nodes":[],"categories_segments":[],"categories_sizes":[],"default_left":[1,1,1,1,1,1,1,0,0,0,0,0,0,1,1],"id":42,"left_children":[1,3,5,7,9,11,-1,-1,-1,-1,-1,-1,-1,-1,-1],"loss_changes":[1.0872225E1,1.3478174E1,2.3835564E1,6.810767E0,1.1890898E0,2.0234592E1,4.2524338E-1,0E0,0E0,0E0,0E0,0E0,0E0,0E0,0E0],"parents":[2147483647,0,0,1,1,2,2,3,3,4,4,5,5,6,6],"right_children":[2,4,6,8,10,12,-1,-1,-1,-1,-1,-1,-1,-1,-1],"split_conditions":[5E-1,1.8117623E5,1.5172056E5,1.4075005E5,4.8183906E4,9.685142E4,-9.5076695E-2,-2.4930933E-2,5.3410046E-3,1.5956302E-1,6.315831E-2,-4.6061497E-2,4.6985112E-2,-5.1220994E-2,-1.08228855E-1],"split_indices":[1,5,5,9,9,5,5,0,0,0,0,0,0,2147483647,2147483647],"split_type":[0,0,0,0,0,0,0,0,0,0,0,0,0,0,0],"sum_hessian":[5.369454E2,3.6813815E2,1.6880719E2,3.5939987E2,8.738264E0,1.5282372E2,1.5983485E1,2.5513162E2,1.0426826E2,2.3837175E0,6.3545465E0,2.7849966E1,1.2497375E2,4.816712E0,1.1166774E1],"tree_param":{"num_deleted":"2","num_feature":"10","num_nodes":"15","size_leaf_vector":"0"}},{"base_weights":[-3.5687648E-2,-2.7276638E-1,4.118887E-2,-4.442559E-1,-1.01950206E-1,5.722293E-2,-9.465298E-1,-4.9191603E-1,4.6222702E-1,1.3036436E-1,-3.798642E-1,1.2664056E-1,-1.4111234E-1],"categories":[],"categories_nodes":[],"categories_segments":[],"categories_sizes":[],"default_left":[1,1,1,1,1,1,0,0,0,0,0,0,0],"id":43,"left_children":[1,3,5,7,9,11,-1,-1,-1,-1,-1,-1,-1],"loss_changes":[9.68384E0,3.7652607E0,6.4147816E0,3.018982E0,4.3408866E0,5.472104E0,0E0,0E0,0E0,0E0,0E0,0E0,0E0],"parents":[2147483647,0,0,1,1,2,2,3,3,4,4,5,5],"right_children":[2,4,6,8,10,12,-1,-1,-1,-1,-1,-1,-1],"split_conditions":[3.45E1,1.0507839E5,7.15E1,2.5E0,1.3665531E5,1.301594E5,-9.465298E-2,-4.9191605E-2,4.62227E-2,1.3036436E-2,-3.798642E-2,1.2664056E-2,-1.4111235E-2],"split_indices":[3,5,3,6,5,5,0,0,0,0,0,0,0],"split_type":[0,0,0,0,0,0,0,0,0,0,0,0,0],"sum_hessian":[5.297099E2,1.2908325E2,4.0062668E2,6.3615845E1,6.54674E1,3.9515402E2,5.4726386E0,6.0872677E1,2.7431672E0,3.594831E1,2.9519087E1,2.9297415E2,1.02179886E2],"tree_param":{"num_deleted":"0","num_feature":"10","num_nodes":"13","size_leaf_vector":"0"}},{"base_weights":[-1.8106028E-2,1.22994274E-1,-1.5577054E-1,4.043027E-2,3.6154592E-1,-2.5156397E-1,7.610908E-2,1.2681441E-1,-3.048696E-1,5.406805E-1,-3.1395E-1,-2.8667435E-1,4.2650932E-1,1.5782861E-1,-8.225051E-1],"categories":[],"categories_nodes":[],"categories_segments":[],"categories_sizes":[],"default_left":[1,1,1,1,1,1,1,0,0,0,0,0,0,0,0],"id":44,"left_children":[1,3,5,7,9,11,13,-1,-1,-1,-1,-1,-1,-1,-1],"loss_changes":[1.03489895E1,5.1688886E0,6.0079894E0,5.904034E0,8.342587E0,4.670126E0,5.97433E0,0E0,0E0,0E0,0E0,0E0,0E0,0E0,0E0],"parents":[2147483647,0,0,1,1,2,2,3,3,4,4,5,5,6,6],"right_children":[2,4,6,8,10,12,14,-1,-1,-1,-1,-1,-1,-1,-1],"split_conditions":[5E-1,4.75E1,4.55E1,1.3791238E5,6.05E1,2.5E0,6.75E1,1.2681441E-2,-3.048696E-2,5.4068055E-2,-3.1395E-2,-2.8667435E-2,4.2650934E-2,1.5782861E-2,-8.225051E-2],"split_indices":[2,3,3,5,3,6,3,0,0,0,0,0,0,0,0],"split_type":[0,0,0,0,0,0,0,0,0,0,0,0,0,0,0],"sum_hessian":[5.307938E2,2.621785E2,2.6861533E2,1.9563698E2,6.654153E1,1.9002701E2,7.85883E1,1.5699425E2,3.8642723E1,5.2751854E1,1.3789671E1,1.812207E2,8.806314E0,7.2792915E1,5.7953877E0],"tree_param":{"num_deleted":"0","num_feature":"10","num_nodes":"15","size_leaf_vector":"0"}},{"base_weights":[-3.151819E-2,8.803977E-2,-1.7372172E-1,2.440525E-1,-8.1786424E-2,-2.207651E-1,4.959906E-1,3.8241515E-1,-1.5331367E-1,6.945083E-2,-3.8832977E-1,-4.5735034E-1,-1.2620576E-1,1.3363993E-1,6.873282E-1],"categories":[],"categories_nodes":[],"categories_segments":[],"categories_sizes":[],"default_left":[1,1,1,1,1,1,1,0,0,0,0,0,0,0,0],"id":45,"left_children":[1,3,5,7,9,11,13,-1,-1,-1,-1,-1,-1,-1,-1],"loss_changes":[9.00188E0,7.6456265E0,7.726253E0,8.31997E0,6.4505157E0,5.011265E0,1.0296195E0,0E0,0E0,0E0,0E0,0E0,0E0,0E0,0E0],"parents":[2147483647,0,0,1,1,2,2,3,3,4,4,5,5,6,6],"right_children":[2,4,6,8,10,12,14,-1,-1,-1,-1,-1,-1,-1,-1],"split_conditions":[5E-1,5E-1,1.6257234E5,1.311176E5,6.5E0,3.55E1,8.143489E4,3.8241517E-2,-1.5331367E-2,6.9450834E-3,-3.8832977E-2,-4.5735035E-2,-1.2620576E-2,1.3363994E-2,6.873282E-2],"split_indices":[0,8,5,5,4,3,9,0,0,0,0,0,0,0,0],"split_type":[0,0,0,0,0,0,0,0,0,0,0,0,0,0,0],"sum_hessian":[5.2757404E2,2.8681473E2,2.4075931E2,1.4925911E2,1.3755562E2,2.2558372E2,1.5175581E1,1.10737885E2,3.852123E1,9.26292E1,4.492642E1,6.3320553E1,1.6226317E2,5.831146E0,9.344436E0],"tree_param":{"num_deleted":"0","num_feature":"10","num_nodes":"15","size_leaf_vector":"0"}},{"base_weights":[-4.261084E-2,-1.3595589E-1,1.5772387E-1,-1.8656555E-1,4.8594198E-1,2.6600644E-1,-7.2357297E-1,-1.9880509E-2,-3.9729658E-1,2.8695422E-1,1.1610285E0,-8.9503855E-1,3.680433E-1,-2.1509653E-2,-8.28027E-1],"categories":[],"categories_nodes":[],"categories_segments":[],"categories_sizes":[],"default_left":[1,1,1,1,1,1,1,0,0,0,0,0,0,0,0],"id":46,"left_children":[1,3,5,7,9,11,13,-1,-1,-1,-1,-1,-1,-1,-1],"loss_changes":[9.872295E0,1.1417522E1,1.6214722E1,1.1707203E1,3.3422437E0,1.8130192E1,1.349165E0,0E0,0E0,0E0,0E0,0E0,0E0,0E0,0E0],"parents":[2147483647,0,0,1,1,2,2,3,3,4,4,5,5,6,6],"right_children":[2,4,6,8,10,12,14,-1,-1,-1,-1,-1,-1,-1,-1],"split_conditions":[5E-1,1.60798E5,1.494571E5,9.461487E4,1.5E0,8.046153E4,1.5E0,-1.988051E-3,-3.972966E-2,2.8695423E-2,1.1610285E-1,-8.9503855E-2,3.680433E-2,-2.1509654E-3,-8.2802705E-2],"split_indices":[1,5,5,5,6,5,4,0,0,0,0,0,0,0,0],"split_type":[0,0,0,0,0,0,0,0,0,0,0,0,0,0,0],"sum_hessian":[5.257764E2,3.5887952E2,1.6689691E2,3.3251932E2,2.636021E1,1.4925635E2,1.7640558E1,1.8627386E2,1.4624545E2,2.1459805E1,4.900406E0,1.1429702E1,1.3782664E2,2.4408534E0,1.5199704E1],"tree_param":{"num_deleted":"0","num_feature":"10","num_nodes":"15","size_leaf_vector":"0"}},{"base_weights":[-4.3266915E-2,-2.8257203E-1,9.862015E-3,-3.868667E-1,-8.576434E-2,3.0367786E-1,-3.88942E-2,-1.409794E-1,-6.3999957E-1,4.0355004E-2,-8.447293E-1,8.280347E-2,7.4588764E-1,8.059008E-2,-1.5605183E-1],"categories":[],"categories_nodes":[],"categories_segments":[],"categories_sizes":[],"default_left":[1,1,1,1,1,1,1,0,0,0,0,0,0,0,0],"id":47,"left_children":[1,3,5,7,9,11,13,-1,-1,-1,-1,-1,-1,-1,-1],"loss_changes":[6.7425485E0,1.9443402E0,6.2399325E0,3.811532E0,3.3513174E0,5.9930367E0,5.2448163E0,0E0,0E0,0E0,0E0,0E0,0E0,0E0,0E0],"parents":[2147483647,0,0,1,1,2,2,3,3,4,4,5,5,6,6],"right_children":[2,4,6,8,10,12,14,-1,-1,-1,-1,-1,-1,-1,-1],"split_conditions":[3.25E1,1.3596766E5,1.5E0,5E-1,1.9192581E5,5E-1,5E-1,-1.4097939E-2,-6.399996E-2,4.0355003E-3,-8.447293E-2,8.280347E-3,7.458877E-2,8.059008E-3,-1.5605183E-2],"split_indices":[3,9,4,8,9,1,2,0,0,0,0,0,0,0,0],"split_type":[0,0,0,0,0,0,0,0,0,0,0,0,0,0,0],"sum_hessian":[5.291045E2,9.5342224E1,4.3376227E2,6.1686745E1,3.365548E1,6.0990627E1,3.7277164E2,3.208098E1,2.9605766E1,2.9671682E1,3.9837983E0,4.1466328E1,1.95243E1,1.8470781E2,1.8806383E2],"tree_param":{"num_deleted":"0","num_feature":"10","num_nodes":"15","size_leaf_vector":"0"}},{"base_weights":[4.0535163E-3,-6.718587E-3,1.3535924E0,7.799163E-2,-1.7538874E-1,4.6523562E-1,-1.8638631E-2,-4.5186254E-1,4.2619385E-2],"categories":[],"categories_nodes":[],"categories_segments":[],"categories_sizes":[],"default_left":[1,1,0,1,1,0,0,0,0],"id":48,"left_children":[1,3,-1,5,7,-1,-1,-1,-1],"loss_changes":[7.5849686E0,7.414896E0,0E0,1.2937617E1,1.047584E1,0E0,0E0,0E0,0E0],"parents":[2147483647,0,0,1,1,3,3,4,4],"right_children":[2,4,-1,6,8,-1,-1,-1,-1],"split_conditions":[2.005237E5,1.5E0,1.3535924E-1,5.75495E4,1.6781975E4,4.6523564E-2,-1.8638632E-3,-4.5186255E-2,4.2619384E-3],"split_indices":[5,6,0,5,5,0,0,0,0],"split_type":[0,0,0,0,0,0,0,0,0],"sum_hessian":[5.201309E2,5.169992E2,3.1316981E0,3.445137E2,1.7248547E2,6.803802E1,2.764757E2,7.55728E1,9.691268E1],"tree_param":{"num_deleted":"0","num_feature":"10","num_nodes":"9","size_leaf_vector":"0"}},{"base_weights":[-4.3613393E-2,7.9067186E-2,-1.7196606E-1,1.8019801E-1,-1.3550156E-1,-2.5075713E-1,2.9006666E-2,7.1401966E-1,4.443122E-2,-2.3352954E-1,5.4352283E-1,-4.043848E-1,6.2441025E-2,2.6378486E-1,-1.842681E-1],"categories":[],"categories_nodes":[],"categories_segments":[],"categories_sizes":[],"default_left":[1,1,1,1,1,1,1,0,0,0,0,0,0,0,0],"id":49,"left_children":[1,3,5,7,9,11,13,-1,-1,-1,-1,-1,-1,-1,-1],"loss_changes":[8.234812E0,5.8319545E0,4.0525637E0,1.3182684E1,5.871648E0,8.860425E0,3.6961067E0,0E0,0E0,0E0,0E0,0E0,0E0,0E0,0E0],"parents":[2147483647,0,0,1,1,2,2,3,3,4,4,5,5,6,6],"right_children":[2,4,6,8,10,12,14,-1,-1,-1,-1,-1,-1,-1,-1],"split_conditions":[5E-1,1.5E0,1.4440697E5,4.602236E4,2.5E0,5E-1,5E-1,7.140197E-2,4.443122E-3,-2.3352955E-2,5.4352283E-2,-4.043848E-2,6.2441025E-3,2.6378486E-2,-1.8426811E-2],"split_indices":[8,6,9,5,6,1,2,0,0,0,0,0,0,0,0],"split_type":[0,0,0,0,0,0,0,0,0,0,0,0,0,0,0],"sum_hessian":[5.211019E2,2.6663443E2,2.5446747E2,1.8132994E2,8.530449E1,1.8262277E2,7.18447E1,3.590315E1,1.454268E2,7.511633E1,1.0188156E1,1.22328125E2,6.0294647E1,3.4085594E1,3.7759106E1],"tree_param":{"num_deleted":"0","num_feature":"10","num_nodes":"15","size_leaf_vector":"0"}},{"base_weights":[-9.759245E-3,-3.6872763E-2,6.145308E-1,3.7732E-2,-2.1454091E-1,3.0737388E-1,8.179182E-1,-6.295852E-2,2.3764166E-1,-4.301214E-1,9.006394E-2,9.590709E-2,9.126878E-1,1.0667186E0,4.27121E-1],"categories":[],"categories_nodes":[],"categories_segments":[],"categories_sizes":[],"default_left":[1,1,1,1,1,1,1,0,0,0,0,0,0,0,0],"id":50,"left_children":[1,3,5,7,9,11,13,-1,-1,-1,-1,-1,-1,-1,-1],"loss_changes":[8.752797E0,6.572409E0,1.0932531E0,7.0526853E0,9.665911E0,1.2151291E0,7.4493694E-1,0E0,0E0,0E0,0E0,0E0,0E0,0E0,0E0],"parents":[2147483647,0,0,1,1,2,2,3,3,4,4,5,5,6,6],"right_children":[2,4,6,8,10,12,14,-1,-1,-1,-1,-1,-1,-1,-1],"split_conditions":[2.5E0,1.5E0,2.188633E4,5E-1,1.0277294E5,1.3433805E5,5E-1,-6.2958524E-3,2.3764167E-2,-4.301214E-2,9.006394E-3,9.59071E-3,9.126878E-2,1.0667186E-1,4.2712104E-2],"split_indices":[6,6,5,1,5,9,1,0,0,0,0,0,0,0,0],"split_type":[0,0,0,0,0,0,0,0,0,0,0,0,0,0,0],"sum_hessian":[5.147614E2,4.9423715E2,2.052426E1,3.4863092E2,1.4560625E2,9.176749E0,1.134751E1,2.3230737E2,1.1632354E2,8.502133E1,6.058491E1,7.659381E0,1.5173678E0,5.8765917E0,5.470918E0],"tree_param":{"num_deleted":"0","num_feature":"10","num_nodes":"15","size_leaf_vector":"0"}},{"base_weights":[-1.6132731E-2,-4.165092E-2,5.89872E-1,3.2743774E-2,-2.1768095E-1,1.0773484E0,3.6607793E-1,4.011234E-1,-5.7354476E-2,-5.2859503E-1,1.7297896E-2,3.3814102E-2,6.3943136E-1],"categories":[],"categories_nodes":[],"categories_segments":[],"categories_sizes":[],"default_left":[1,1,1,1,1,0,1,0,0,0,0,0,0],"id":51,"left_children":[1,3,5,7,9,-1,11,-1,-1,-1,-1,-1,-1],"loss_changes":[7.947789E0,6.457961E0,1.8713989E0,1.1544201E1,1.070976E1,0E0,1.4087887E0,0E0,0E0,0E0,0E0,0E0,0E0],"parents":[2147483647,0,0,1,1,2,2,3,3,4,4,6,6],"right_children":[2,4,6,8,10,-1,12,-1,-1,-1,-1,-1,-1],"split_conditions":[2.5E0,1.5E0,5E-1,5.75495E4,2.3913375E4,1.0773484E-1,2.188633E4,4.0112343E-2,-5.7354476E-3,-5.2859504E-2,1.7297895E-3,3.3814104E-3,6.394314E-2],"split_indices":[6,6,7,5,5,0,5,0,0,0,0,0,0],"split_type":[0,0,0,0,0,0,0,0,0,0,0,0,0],"sum_hessian":[5.1136078E2,4.9159167E2,1.9769114E1,3.461247E2,1.4546696E2,5.0201097E0,1.4749003E1,6.734066E1,2.7878406E2,6.207819E1,8.338878E1,7.1643567E0,7.5846467E0],"tree_param":{"num_deleted":"0","num_feature":"10","num_nodes":"13","size_leaf_vector":"0"}},{"base_weights":[-1.3050426E-2,-7.540159E-2,1.447393E-1,-5.06757E-2,-5.9110874E-1,3.73555E-1,-4.335339E-2,-9.2544526E-2,4.1002354E-1,-9.7008514E-1,-1.3442278E-1,4.1047847E-1,-7.8061754E-1,2.932922E-1,-2.9650688E-1],"categories":[],"categories_nodes":[],"categories_segments":[],"categories_sizes":[],"default_left":[1,1,1,1,1,1,1,0,0,0,0,0,0,0,0],"id":52,"left_children":[1,3,5,7,9,11,13,-1,-1,-1,-1,-1,-1,-1,-1],"loss_changes":[5.0371537E0,4.6477423E0,6.258547E0,6.8112626E0,2.758173E0,3.1135159E0,6.9474297E0,0E0,0E0,0E0,0E0,0E0,0E0,0E0,0E0],"parents":[2147483647,0,0,1,1,2,2,3,3,4,4,5,5,6,6],"right_children":[2,4,6,8,10,12,14,-1,-1,-1,-1,-1,-1,-1,-1],"split_conditions":[4.65E1,1.9276044E5,4.5E0,1.7737042E5,1.9646448E5,7.15E1,5E-1,-9.254453E-3,4.1002356E-2,-9.700852E-2,-1.3442278E-2,4.104785E-2,-7.806175E-2,2.932922E-2,-2.9650688E-2],"split_indices":[3,9,4,9,9,3,8,0,0,0,0,0,0,0,0],"split_type":[0,0,0,0,0,0,0,0,0,0,0,0,0,0,0],"sum_hessian":[5.0988123E2,3.658403E2,1.4404092E2,3.501504E2,1.5689904E1,6.454076E1,7.950017E1,3.2171198E2,2.8438396E1,7.9601054E0,7.729799E0,6.31644E1,1.3763582E0,3.4055E1,4.5445168E1],"tree_param":{"num_deleted":"0","num_feature":"10","num_nodes":"15","size_leaf_vector":"0"}},{"base_weights":[-2.7863398E-2,-3.779896E-2,1.0238124E0,5.420722E-2,-1.3660987E-1,1.4541862E0,-9.0485245E-2,2.5956142E-1,-4.3015465E-2,2.0138848E-1,-1.9842614E-1],"categories":[],"categories_nodes":[],"categories_segments":[],"categories_sizes":[],"default_left":[1,1,1,1,1,0,0,0,0,0,0],"id":53,"left_children":[1,3,5,7,9,-1,-1,-1,-1,-1,-1],"loss_changes":[5.308216E0,4.558043E0,2.412105E0,5.200445E0,5.088648E0,0E0,0E0,0E0,0E0,0E0,0E0],"parents":[2147483647,0,0,1,1,2,2,3,3,4,4],"right_children":[2,4,6,8,10,-1,-1,-1,-1,-1,-1],"split_conditions":[2.0066605E5,5E-1,6.5E0,7.818309E4,1.5E0,1.4541863E-1,-9.048524E-3,2.5956143E-2,-4.3015466E-3,2.0138849E-2,-1.9842615E-2],"split_indices":[5,8,4,5,4,0,0,0,0,0,0],"split_type":[0,0,0,0,0,0,0,0,0,0,0],"sum_hessian":[5.0330884E2,4.9955344E2,3.7554026E0,2.5891776E2,2.4063568E2,2.489039E0,1.2663635E0,8.265781E1,1.7625993E2,3.6856155E1,2.0377953E2],"tree_param":{"num_deleted":"0","num_feature":"10","num_nodes":"11","size_leaf_vector":"0"}},{"base_weights":[6.8213413E-3,1.6806928E-2,-9.1815925E-1,-3.219068E-2,2.2194335E-1,-3.0643252E-1,-1.028883E0,-1.1103857E-1,1.2834378E-1,3.6844546E-1,2.314255E-2],"categories":[],"categories_nodes":[],"categories_segments":[],"categories_sizes":[],"default_left":[1,1,1,1,1,1,1,0,0,0,0],"id":54,"left_children":[1,3,-1,7,9,-1,-1,-1,-1,-1,-1],"loss_changes":[4.7343707E0,5.097353E0,5.5519104E-2,5.1996603E0,2.8389163E0,0E0,0E0,0E0,0E0,0E0,0E0],"parents":[2147483647,0,0,1,1,2,2,3,3,4,4],"right_children":[2,4,-1,8,10,-1,-1,-1,-1,-1,-1],"split_conditions":[7.15E1,4.95E1,-9.1815926E-2,5E-1,5.5E0,-3.0643253E-2,-1.028883E-1,-1.1103857E-2,1.2834378E-2,3.6844548E-2,2.314255E-3],"split_indices":[3,3,7,1,4,2147483647,2147483647,0,0,0,0],"split_type":[0,0,0,0,0,0,0,0,0,0,0],"sum_hessian":[5.099027E2,5.0542822E2,4.474498E0,4.0866104E2,9.676716E1,1.2631859E0,3.211312E0,2.7426282E2,1.3439824E2,5.522034E1,4.1546818E1],"tree_param":{"num_deleted":"2","num_feature":"10","num_nodes":"11","size_leaf_vector":"0"}},{"base_weights":[1.2107282E-2,1.2386225E-1,-1.0003444E-1,4.88754E-2,5.4175544E-1,-1.432958E-1,2.2013007E-1,4.7640878E-1,1.5947493E-2,6.0342866E-1,-8.5415125E-1,-3.9887056E-1,-6.557154E-2,1.0407913E0,-8.4913366E-2],"categories":[],"categories_nodes":[],"categories_segments":[],"categories_sizes":[],"default_left":[1,1,1,1,1,1,1,0,0,0,0,0,0,0,0],"id":55,"left_children":[1,3,5,7,9,11,13,-1,-1,-1,-1,-1,-1,-1,-1],"loss_changes":[6.3483295E0,7.9225206E0,3.5343852E0,3.0356283E0,3.829339E0,4.411547E0,7.7233634E0,0E0,0E0,0E0,0E0,0E0,0E0,0E0,0E0],"parents":[2147483647,0,0,1,1,2,2,3,3,4,4,5,5,6,6],"right_children":[2,4,6,8,10,12,14,-1,-1,-1,-1,-1,-1,-1,-1],"split_conditions":[5E-1,8.5E0,1.7731102E5,1.438377E4,6.55E1,3.45E1,1.8302969E5,4.764088E-2,1.5947493E-3,6.0342867E-2,-8.5415125E-2,-3.9887056E-2,-6.557154E-3,1.0407913E-1,-8.491336E-3],"split_indices":[2,4,9,9,3,3,9,0,0,0,0,0,0,0,0],"split_type":[0,0,0,0,0,0,0,0,0,0,0,0,0,0,0],"sum_hessian":[5.045649E2,2.526659E2,2.5189902E2,2.1517229E2,3.749361E1,2.2240022E2,2.9498793E1,1.4423996E1,2.0074829E2,3.645087E1,1.0427387E0,5.089948E1,1.7150075E2,7.339994E0,2.2158798E1],"tree_param":{"num_deleted":"0","num_feature":"10","num_nodes":"15","size_leaf_vector":"0"}},{"base_weights":[1.7669437E-2,-3.3326019E-3,5.1287687E-1,6.380848E-2,-1.7078662E-1,9.579882E-2,8.537647E-1,3.400991E-1,-1.4052701E-2,8.4683186E-1,-2.1458934E-1,-4.7750875E-1,4.9745953E-1,9.931228E-1,-2.2826938E-1],"categories":[],"categories_nodes":[],"categories_segments":[],"categories_sizes":[],"default_left":[1,1,1,1,1,1,1,0,0,0,0,0,0,0,0],"id":56,"left_children":[1,3,5,7,9,11,13,-1,-1,-1,-1,-1,-1,-1,-1],"loss_changes":[5.2797055E0,5.495574E0,2.8546472E0,7.5112863E0,6.417173E0,2.635871E0,1.9213324E0,0E0,0E0,0E0,0E0,0E0,0E0,0E0,0E0],"parents":[2147483647,0,0,1,1,2,2,3,3,4,4,5,5,6,6],"right_children":[2,4,6,8,10,12,14,-1,-1,-1,-1,-1,-1,-1,-1],"split_conditions":[2.5E0,1.5E0,2.5455605E4,6.7878516E4,5E-1,3.75E1,1.8514969E5,3.400991E-2,-1.4052702E-3,8.468319E-2,-2.1458935E-2,-4.7750875E-2,4.9745955E-2,9.931228E-2,-2.2826938E-2],"split_indices":[6,6,5,5,4,3,9,0,0,0,0,0,0,0,0],"split_type":[0,0,0,0,0,0,0,0,0,0,0,0,0,0,0],"sum_hessian":[5.0648184E2,4.8682843E2,1.9653412E1,3.4794E2,1.3888841E2,9.415062E0,1.0238349E1,7.5755035E1,2.7218497E2,4.975086E0,1.3391333E2,3.8009572E0,5.614105E0,9.142972E0,1.0953774E0],"tree_param":{"num_deleted":"0","num_feature":"10","num_nodes":"15","size_leaf_vector":"0"}},{"base_weights":[1.6236637E-2,-3.5860613E-2,2.5902686E-1,-1.22911446E-1,1.3577403E-1,3.3492938E-1,-8.8823384E-1,-1.6134281E-1,5.528982E-1,-5.073187E-1,2.5913984E-1,6.417778E-1,1.6927356E-1],"categories":[],"categories_nodes":[],"categories_segments":[],"categories_sizes":[],"default_left":[1,1,1,1,1,1,0,0,0,0,0,0,0],"id":57,"left_children":[1,3,5,7,9,11,-1,-1,-1,-1,-1,-1,-1],"loss_changes":[6.448236E0,6.291935E0,8.139599E0,7.340464E0,1.1382173E1,4.2218866E0,0E0,0E0,0E0,0E0,0E0,0E0,0E0],"parents":[2147483647,0,0,1,1,2,2,3,3,4,4,5,5],"right_children":[2,4,6,8,10,12,-1,-1,-1,-1,-1,-1,-1],"split_conditions":[5.05E1,5E-1,7.15E1,1.68194E5,9.685142E4,5E-1,-8.8823386E-2,-1.6134283E-2,5.5289824E-2,-5.0731868E-2,2.5913984E-2,6.417778E-2,1.6927356E-2],"split_indices":[3,1,3,5,5,8,0,0,0,0,0,0,0],"split_type":[0,0,0,0,0,0,0,0,0,0,0,0,0],"sum_hessian":[5.0805988E2,4.1900357E2,8.905633E1,2.7819208E2,1.4081148E2,8.419412E1,4.862204E0,2.639436E2,1.4248463E1,2.2163454E1,1.18648026E2,2.8510061E1,5.568406E1],"tree_param":{"num_deleted":"0","num_feature":"10","num_nodes":"13","size_leaf_vector":"0"}},{"base_weights":[-2.3908805E-2,-3.3874236E-2,1.1009858E0,8.7347924E-4,-3.095315E-1,1.3470029E0,2.8903544E-1,-7.284188E-2,1.4612545E-1,-1.07306466E-1,-6.983915E-1],"categories":[],"categories_nodes":[],"categories_segments":[],"categories_sizes":[],"default_left":[1,1,1,1,1,1,1,0,0,0,0],"id":58,"left_children":[1,3,-1,7,9,-1,-1,-1,-1,-1,-1],"loss_changes":[5.5916467E0,4.713816E0,4.8573923E-1,4.7005343E0,4.257172E0,0E0,0E0,0E0,0E0,0E0,0E0],"parents":[2147483647,0,0,1,1,2,2,3,3,4,4],"right_children":[2,4,-1,8,10,-1,-1,-1,-1,-1,-1],"split_conditions":[2.005237E5,1.4906681E5,1.1009858E-1,5E-1,5E-1,1.3470028E-1,2.8903544E-2,-7.284188E-3,1.4612545E-2,-1.0730647E-2,-6.983915E-2],"split_indices":[5,5,4,1,1,2147483647,2147483647,0,0,0,0],"split_type":[0,0,0,0,0,0,0,0,0,0,0],"sum_hessian":[4.9447925E2,4.9109848E2,3.3807502E0,4.370086E2,5.4089874E1,2.0888627E0,1.2918875E0,2.9022034E2,1.4678828E2,3.6423786E1,1.7666088E1],"tree_param":{"num_deleted":"2","num_feature":"10","num_nodes":"11","size_leaf_vector":"0"}},{"base_weights":[-2.2310796E-3,7.991617E-3,-9.522954E-1,-4.093681E-2,2.1375707E-1,-3.0007297E-1,-1.0926908E0,1.3312322E-1,-1.038872E-1,5.335947E-1,5.1995557E-2],"categories":[],"categories_nodes":[],"categories_segments":[],"categories_sizes":[],"default_left":[1,1,1,1,1,1,1,0,0,0,0],"id":59,"left_children":[1,3,-1,7,9,-1,-1,-1,-1,-1,-1],"loss_changes":[4.8573747E0,4.9925284E0,1.5963554E-1,4.405067E0,4.900655E0,0E0,0E0,0E0,0E0,0E0,0E0],"parents":[2147483647,0,0,1,1,2,2,3,3,4,4],"right_children":[2,4,-1,8,10,-1,-1,-1,-1,-1,-1],"split_conditions":[7.15E1,4.95E1,-9.5229544E-2,5.7021914E4,5E-1,-3.0007297E-2,-1.0926908E-1,1.3312322E-2,-1.038872E-2,5.3359475E-2,5.199556E-3],"split_indices":[3,3,7,9,8,2147483647,2147483647,0,0,0,0],"split_type":[0,0,0,0,0,0,0,0,0,0,0],"sum_hessian":[4.9834665E2,4.9402255E2,4.324096E0,3.9976462E2,9.425793E1,1.3216352E0,3.0024612E0,1.05882126E2,2.938825E2,3.0887661E1,6.3370266E1],"tree_param":{"num_deleted":"2","num_feature":"10","num_nodes":"11","size_leaf_vector":"0"}},{"base_weights":[1.1985228E-2,1.0151013E-3,1.2364041E0,4.134367E-2,-3.2431215E-1,1.4488354E-1,-7.0579104E-2,-1.6997568E-1,-6.245414E-1],"categories":[],"categories_nodes":[],"categories_segments":[],"categories_sizes":[],"default_left":[1,1,0,1,1,0,0,0,0],"id":60,"left_children":[1,3,-1,5,7,-1,-1,-1,-1],"loss_changes":[6.722214E0,6.5354953E0,0E0,5.1458993E0,2.439558E0,0E0,0E0,0E0,0E0],"parents":[2147483647,0,0,1,1,3,3,4,4],"right_children":[2,4,-1,6,8,-1,-1,-1,-1],"split_conditions":[2.005237E5,1.4906681E5,1.2364041E-1,5E-1,5E-1,1.4488354E-2,-7.0579103E-3,-1.6997568E-2,-6.245414E-2],"split_indices":[5,5,0,8,1,0,0,0,0],"split_type":[0,0,0,0,0,0,0,0,0],"sum_hessian":[4.99555E2,4.9611093E2,3.4440553E0,4.42171E2,5.393996E1,2.2953418E2,2.126368E2,3.6660397E1,1.7279566E1],"tree_param":{"num_deleted":"0","num_feature":"10","num_nodes":"9","size_leaf_vector":"0"}},{"base_weights":[-1.7195305E-2,-1.77066E-1,3.1069087E-2,-4.3439934E-1,-9.489397E-2,4.636857E-2,-5.333418E-1,-2.404767E-1,-6.334317E-1,9.277795E-1,-1.6258422E-1,2.0552693E-1,-1.0001731E-2,-2.0920475E-1,-9.3028927E-1],"categories":[],"categories_nodes":[],"categories_segments":[],"categories_sizes":[],"default_left":[1,1,1,1,1,1,1,0,0,0,0,0,0,0,0],"id":61,"left_children":[1,3,5,7,9,11,13,-1,-1,-1,-1,-1,-1,-1,-1],"loss_changes":[3.8728948E0,2.4196088E0,3.356516E0,9.240408E-1,6.345659E0,3.3806133E0,1.1258538E0,0E0,0E0,0E0,0E0,0E0,0E0,0E0,0E0],"parents":[2147483647,0,0,1,1,2,2,3,3,4,4,5,5,6,6],"right_children":[2,4,6,8,10,12,14,-1,-1,-1,-1,-1,-1,-1,-1],"split_conditions":[3.45E1,5.0088062E4,6.75E1,5E-1,5.691134E4,5.3198258E4,5E-1,-2.404767E-2,-6.334317E-2,9.277795E-2,-1.6258422E-2,2.0552693E-2,-1.0001732E-3,-2.0920476E-2,-9.3028925E-2],"split_indices":[3,9,3,0,9,9,1,0,0,0,0,0,0,0,0],"split_type":[0,0,0,0,0,0,0,0,0,0,0,0,0,0,0],"sum_hessian":[5.002134E2,1.1537552E2,3.848379E2,2.6887392E1,8.848813E1,3.75575E2,9.262862E0,1.47369795E1,1.2150413E1,4.7045712E0,8.3783554E1,9.753747E1,2.7803754E2,5.939694E0,3.3231683E0],"tree_param":{"num_deleted":"0","num_feature":"10","num_nodes":"15","size_leaf_vector":"0"}},{"base_weights":[-3.6803912E-2,1.0969461E-1,-1.1345405E-1,-4.0822348E-1,1.5084559E-1,-2.3983596E-1,1.6874844E-2,-6.6577303E-1,7.523264E-1,1.9876896E-1,-2.8546107E-1,6.569556E-2,-2.961509E-1,8.4392145E-2,-4.8844618E-1],"categories":[],"categories_nodes":[],"categories_segments":[],"categories_sizes":[],"default_left":[1,1,1,1,1,1,1,0,0,0,0,0,0,0,0],"id":62,"left_children":[1,3,5,7,9,11,13,-1,-1,-1,-1,-1,-1,-1,-1],"loss_changes":[5.567094E0,3.6937635E0,5.3611736E0,4.330962E0,3.3731298E0,2.86166E0,5.5360746E0,0E0,0E0,0E0,0E0,0E0,0E0,0E0,0E0],"parents":[2147483647,0,0,1,1,2,2,3,3,4,4,5,5,6,6],"right_children":[2,4,6,8,10,12,14,-1,-1,-1,-1,-1,-1,-1,-1],"split_conditions":[6.840119E4,4.828855E3,1.3544073E5,8.5E0,1.521758E5,1.5E0,1.9276044E5,-6.657731E-2,7.523265E-2,1.9876895E-2,-2.8546108E-2,6.5695564E-3,-2.961509E-2,8.439215E-3,-4.8844617E-2],"split_indices":[9,9,9,4,5,4,9,0,0,0,0,0,0,0,0],"split_type":[0,0,0,0,0,0,0,0,0,0,0,0,0,0,0],"sum_hessian":[4.936641E2,1.694224E2,3.242417E2,1.1813968E1,1.5760841E2,1.6418692E2,1.600548E2,1.0017264E1,1.796704E0,1.4250075E2,1.51076765E1,2.5526833E1,1.386601E2,1.4192484E2,1.8129965E1],"tree_param":{"num_deleted":"0","num_feature":"10","num_nodes":"15","size_leaf_vector":"0"}},{"base_weights":[9.047113E-3,-1.1206072E-2,4.701287E-1,-7.072366E-2,1.1130195E-1,-4.7985382E-2,6.0799205E-1,3.643772E-2,-1.8646471E-1,1.5755186E0,8.559213E-2,-8.519845E-1,5.768991E-1,6.7629814E-1,-2.08087E-1],"categories":[],"categories_nodes":[],"categories_segments":[],"categories_sizes":[],"default_left":[1,1,1,1,1,1,1,0,0,0,0,0,0,0,0],"id":63,"left_children":[1,3,5,7,9,11,13,-1,-1,-1,-1,-1,-1,-1,-1],"loss_changes":[4.674436E0,3.5072718E0,1.5335951E0,4.0206604E0,5.787236E0,3.1810381E0,1.0721121E0,0E0,0E0,0E0,0E0,0E0,0E0,0E0,0E0],"parents":[2147483647,0,0,1,1,2,2,3,3,4,4,5,5,6,6],"right_children":[2,4,6,8,10,12,14,-1,-1,-1,-1,-1,-1,-1,-1],"split_conditions":[2.5E0,1.3544538E5,6.661966E4,5E-1,1.3659783E5,3.1047355E4,1.8780034E5,3.643772E-3,-1.8646471E-2,1.5755187E-1,8.559213E-3,-8.5198455E-2,5.7689913E-2,6.7629814E-2,-2.08087E-2],"split_indices":[6,9,9,8,9,5,9,0,0,0,0,0,0,0,0],"split_type":[0,0,0,0,0,0,0,0,0,0,0,0,0,0,0],"sum_hessian":[4.9899817E2,4.789364E2,2.006177E1,3.2262128E2,1.5631512E2,4.3532915E0,1.5708477E1,1.6787538E2,1.547459E2,1.6571456E0,1.5465797E2,1.7448617E0,2.60843E0,1.4653276E1,1.0552002E0],"tree_param":{"num_deleted":"0","num_feature":"10","num_nodes":"15","size_leaf_vector":"0"}},{"base_weights":[-1.6805906E-2,7.7265546E-2,-1.1829968E-1,4.0757377E-2,7.162927E-1,-1.4593987E-1,4.598187E-1,1.2012602E-2,6.762931E-1,8.7003297E-1,-2.5820714E-1,-7.201508E-1,-1.11504525E-1,-3.069704E-1,6.907265E-1],"categories":[],"categories_nodes":[],"categories_segments":[],"categories_sizes":[],"default_left":[1,1,1,1,1,1,1,0,0,0,0,0,0,0,0],"id":64,"left_children":[1,3,5,7,9,11,13,-1,-1,-1,-1,-1,-1,-1,-1],"loss_changes":[4.7414017E0,5.9859858E0,3.8831599E0,4.4668794E0,2.303227E0,4.441317E0,2.1840472E0,0E0,0E0,0E0,0E0,0E0,0E0,0E0,0E0],"parents":[2147483647,0,0,1,1,2,2,3,3,4,4,5,5,6,6],"right_children":[2,4,6,8,10,12,14,-1,-1,-1,-1,-1,-1,-1,-1],"split_conditions":[5E-1,5.55E1,2.5E0,1.7211831E5,6.85E1,2.65E1,6.726533E4,1.2012603E-3,6.762931E-2,8.70033E-2,-2.5820715E-2,-7.2015084E-2,-1.1150452E-2,-3.0697038E-2,6.907266E-2],"split_indices":[8,3,6,5,3,3,9,0,0,0,0,0,0,0,0],"split_type":[0,0,0,0,0,0,0,0,0,0,0,0,0,0,0],"sum_hessian":[4.9464578E2,2.5683347E2,2.3781232E2,2.4395963E2,1.2873844E1,2.2767462E2,1.0137701E1,2.343778E2,9.5818205E0,1.1212174E1,1.6616696E0,1.1754509E1,2.159201E2,2.27004E0,7.8676605E0],"tree_param":{"num_deleted":"0","num_feature":"10","num_nodes":"15","size_leaf_vector":"0"}},{"base_weights":[-5.460369E-3,2.2434343E-3,-1.0241629E0,-1.4985184E-2,3.9913663E-1,4.8829816E-2,-1.7071806E-1,-1.10179454E-1,6.0799205E-1],"categories":[],"categories_nodes":[],"categories_segments":[],"categories_sizes":[],"default_left":[1,1,0,1,1,0,0,0,0],"id":65,"left_children":[1,3,-1,5,7,-1,-1,-1,-1],"loss_changes":[3.801783E0,3.2984772E0,0E0,4.604081E0,2.201706E0,0E0,0E0,0E0,0E0],"parents":[2147483647,0,0,1,1,3,3,4,4],"right_children":[2,4,-1,6,8,-1,-1,-1,-1],"split_conditions":[7.25E1,2.5E0,-1.0241629E-1,1.5E0,7.275008E4,4.8829815E-3,-1.7071806E-2,-1.1017946E-2,6.0799208E-2],"split_indices":[3,6,0,6,9,0,0,0,0],"split_type":[0,0,0,0,0,0,0,0,0],"sum_hessian":[4.831414E2,4.8050543E2,2.635961E0,4.6143726E2,1.906815E1,3.278003E2,1.33637E2,5.682713E0,1.3385437E1],"tree_param":{"num_deleted":"0","num_feature":"10","num_nodes":"9","size_leaf_vector":"0"}},{"base_weights":[6.261638E-3,1.1567649E-1,-1.01249896E-1,1.0128803E-1,8.541315E-1,-2.2691189E-1,2.0235417E-2,1.5433423E-1,-1.8043898E-1,-2.958067E-1,2.9036856E-1,3.868421E-1,-1.5786211E-1],"categories":[],"categories_nodes":[],"categories_segments":[],"categories_sizes":[],"default_left":[1,1,1,1,0,1,1,0,0,0,0,0,0],"id":66,"left_children":[1,3,5,7,-1,9,11,-1,-1,-1,-1,-1,-1],"loss_changes":[5.880067E0,2.5454838E0,3.8540177E0,3.675992E0,0E0,4.5060296E0,8.4919615E0,0E0,0E0,0E0,0E0,0E0,0E0],"parents":[2147483647,0,0,1,1,2,2,3,3,5,5,6,6],"right_children":[2,4,6,8,-1,10,12,-1,-1,-1,-1,-1,-1],"split_conditions":[5E-1,1.8494462E5,1.0781914E5,1.4063931E5,8.541315E-2,1.7731102E5,1.22482484E5,1.5433423E-2,-1.8043898E-2,-2.9580671E-2,2.9036855E-2,3.868421E-2,-1.5786212E-2],"split_indices":[2,5,5,5,0,9,5,0,0,0,0,0,0],"split_type":[0,0,0,0,0,0,0,0,0,0,0,0,0],"sum_hessian":[4.9786725E2,2.4671184E2,2.5115543E2,2.4311206E2,3.5997684E0,1.2302893E2,1.281265E2,2.0497049E2,3.814158E1,1.0894682E2,1.40821085E1,4.1509254E1,8.661723E1],"tree_param":{"num_deleted":"0","num_feature":"10","num_nodes":"13","size_leaf_vector":"0"}},{"base_weights":[6.5960293E-3,8.273499E-2,-6.908856E-2,2.5542364E-1,-7.7321976E-3,-1.16217084E-1,2.5516987E-1,3.4854E-1,-1.00863315E-1,-2.6453248E-1,2.5142545E-1,1.8257186E-3,-2.6497963E-1,9.393997E-1,-1.4460607E-2],"categories":[],"categories_nodes":[],"categories_segments":[],"categories_sizes":[],"default_left":[1,1,1,1,1,1,1,0,0,0,0,0,0,0,0],"id":67,"left_children":[1,3,5,7,9,11,13,-1,-1,-1,-1,-1,-1,-1,-1],"loss_changes":[2.8020911E0,3.788322E0,3.7569637E0,2.800331E0,1.0715743E1,3.7520874E0,5.781479E0,0E0,0E0,0E0,0E0,0E0,0E0,0E0,0E0],"parents":[2147483647,0,0,1,1,2,2,3,3,4,4,5,5,6,6],"right_children":[2,4,6,8,10,12,14,-1,-1,-1,-1,-1,-1,-1,-1],"split_conditions":[5E-1,6.840119E4,1.777662E5,1.3509556E5,1.3537338E5,5E-1,1.835535E5,3.4854002E-2,-1.00863315E-2,-2.6453247E-2,2.5142545E-2,1.8257186E-4,-2.6497964E-2,9.3939975E-2,-1.4460607E-3],"split_indices":[2,9,9,5,9,0,9,0,0,0,0,0,0,0,0],"split_type":[0,0,0,0,0,0,0,0,0,0,0,0,0,0,0],"sum_hessian":[4.842673E2,2.4136258E2,2.4290474E2,8.2348305E1,1.5901428E2,2.1264061E2,3.0264124E1,6.530297E1,1.7045332E1,7.985998E1,7.91543E1,1.19112656E2,9.3527954E1,7.85268E0,2.2411444E1],"tree_param":{"num_deleted":"0","num_feature":"10","num_nodes":"15","size_leaf_vector":"0"}}]},"name":"gbtree"},"learner_model_param":{"base_score":"5E-1","boost_from_average":"1","num_class":"0","num_feature":"10","num_target":"1"},"objective":{"name":"binary:logistic","reg_loss_param":{"scale_pos_weight":"1"}}},"version":[1,7,5]}
